%YAML:1.0
my_svm: !!opencv-ml-svm
   svm_type: C_SVC
   kernel: { type:LINEAR }
   C: 5.0000000000000000e-001
   term_criteria: { epsilon:1.1920928955078125e-007, iterations:1000 }
   var_all: 1764
   var_count: 1764
   class_count: 2
   class_labels: !!opencv-matrix
      rows: 1
      cols: 2
      dt: i
      data: [ -1, 1 ]
   sv_total: 1
   support_vectors:
      - [ 1.25318952e-002, 5.03611118e-002, 1.22235939e-001,
          -4.25139926e-002, -3.16255055e-002, -6.76525803e-003,
          -8.95764157e-002, -2.51091123e-001, -2.45085388e-001,
          -7.31873512e-002, -2.10233510e-001, -1.93524972e-001,
          -2.66073138e-001, -7.11366609e-002, -5.98006770e-002,
          8.30702409e-002, -1.91697434e-001, -1.71105266e-001,
          -4.55053091e-001, 7.76955858e-002, 1.57658741e-001,
          -3.99466544e-001, -9.92502570e-002, -4.73049982e-003,
          -1.87784746e-001, -1.00426108e-001, -3.76406491e-001,
          -2.83902228e-001, -2.15809405e-001, -2.79828280e-001,
          -3.14604193e-001, -2.82535940e-001, -2.01403156e-001,
          3.20617743e-002, 1.35013163e-001, -2.09206551e-001,
          1.37828747e-002, 3.92245166e-002, 2.46601805e-001,
          -7.67378062e-002, -7.32319662e-003, 1.41377315e-001,
          2.64133662e-001, -1.83357839e-002, -4.98177186e-002,
          -8.08993503e-002, -2.68028080e-002, -1.28369674e-001,
          -1.10306814e-002, -2.70703346e-001, 1.40560837e-002,
          3.57357919e-001, -1.67400524e-001, -7.95240849e-002,
          -1.31866321e-001, -2.24549845e-001, -1.14380293e-001,
          -2.92475000e-002, -1.75451577e-001, 3.06379795e-002,
          1.69103041e-001, 5.83341606e-002, -5.89305870e-002,
          6.50495440e-002, -2.55636841e-001, -3.46527517e-001,
          -7.40983784e-002, -2.62116790e-001, -2.68223226e-001,
          2.87016295e-002, -3.82740259e-001, -2.86386639e-001,
          -4.33199964e-002, 1.07691005e-001, -1.63030297e-001,
          2.45570570e-001, 1.17517099e-001, 1.16394117e-001,
          3.24314147e-001, 8.27595890e-002, 2.28387676e-002,
          -4.51801598e-001, -2.37276301e-001, -2.54280180e-001,
          1.67231545e-001, -1.34652751e-002, -1.89979877e-002,
          -9.54737514e-002, 9.09068342e-003, -2.30440184e-001,
          1.91480368e-002, 1.15288034e-001, -2.30006531e-001,
          -1.22003302e-001, 1.03421081e-002, -1.60119697e-001,
          6.32391647e-002, -5.63380606e-002, -1.51098847e-001,
          -1.22171149e-001, -8.51353705e-002, -1.25559300e-001,
          -2.58071661e-001, -1.27143264e-001, -1.33383796e-001,
          1.12973802e-001, 3.97014581e-002, 9.14436281e-002,
          -3.55054528e-001, -2.20947992e-002, -1.06907874e-001,
          5.50423622e-001, -2.22339518e-002, 3.11068092e-002,
          -2.25812063e-001, 1.09123863e-001, -1.14180751e-001,
          -3.40807885e-001, -2.25013360e-001, -4.46581751e-001,
          4.18065131e-001, -3.27497944e-002, 3.41603398e-001,
          -1.55265346e-001, 2.19806060e-001, -1.94208473e-001,
          1.19368136e-002, 2.45860800e-001, -1.37912348e-001,
          5.09450138e-002, 4.50707041e-003, -1.59948543e-001,
          -6.76923469e-002, 2.29463905e-001, 2.62678802e-001,
          -1.06084503e-001, -3.70932259e-002, -3.07781935e-001,
          -3.26685049e-002, -4.09616344e-002, 4.51719388e-002,
          2.83086151e-002, 3.18204984e-002, 1.69004768e-001,
          -3.06467533e-001, 5.15778102e-002, -1.47981331e-001,
          1.81961715e-001, -1.15571767e-001, -3.15152071e-002,
          -3.22211742e-001, 1.59283400e-001, -2.63660163e-001,
          -5.03005028e-001, -7.35689700e-002, 3.32104087e-001,
          2.73843914e-001, 1.70906633e-002, -3.44220623e-002,
          -1.92643434e-001, -1.31439090e-001, -3.68265212e-001,
          -7.26980418e-002, -2.30490148e-001, -2.90326923e-001,
          -1.30608588e-001, -1.80818081e-001, 9.21489298e-003,
          -1.70273647e-001, -1.23534389e-002, 2.11800113e-001,
          -3.49743634e-001, -3.47713500e-001, -2.54206926e-001,
          2.46171211e-003, -2.79922545e-001, -1.35585576e-001,
          -1.94359094e-001, 6.99454099e-002, 6.63526729e-002,
          -2.39176676e-001, 1.56659782e-001, 3.88698399e-001,
          1.28255948e-001, 1.98406130e-001, 5.11072502e-002,
          -4.30721194e-001, -3.19302499e-001, -3.83306563e-001,
          -1.69613078e-001, 2.35428616e-001, 2.09597573e-001,
          1.71443880e-001, 9.64282826e-002, -1.20916041e-002,
          -5.53005099e-001, -6.50493503e-001, -8.97958949e-002,
          -1.94249049e-001, -3.56223106e-001, -1.49265110e-001,
          -1.35246933e-001, -3.96724850e-001, -4.45005119e-001,
          -1.98139504e-001, 1.07729599e-001, -1.32053629e-001,
          4.58328985e-002, -7.24874213e-002, -6.71730638e-002,
          -3.21800768e-001, -3.65498036e-001, -3.67057890e-001,
          -3.44233811e-002, 2.33764276e-002, 1.29355937e-002,
          1.14306010e-001, -6.52988404e-002, -4.12196992e-003,
          2.12885156e-001, 4.24378037e-001, 1.79927185e-001,
          -6.79497659e-001, -9.28952157e-001, -2.85236359e-001,
          5.84820390e-001, 2.76590019e-001, 3.48996341e-001,
          3.17356259e-001, 7.85265088e-001, 4.05660719e-001,
          -1.19393714e-001, -3.84819284e-002, 3.88588637e-001,
          -4.26032603e-001, -4.65888560e-001, -5.13245344e-001,
          -4.40484166e-001, -4.07834560e-001, -3.93677145e-001,
          -5.48747420e-001, -4.88887340e-001, -4.13414717e-001,
          5.62067106e-002, 1.73782587e-001, 1.32797807e-001,
          -1.15079507e-001, -3.11410338e-001, -5.44089615e-001,
          -6.08214200e-001, -3.83285910e-001, 1.78288668e-002,
          -6.22699261e-002, 1.44629627e-001, 1.18973970e-001,
          -9.00057554e-002, 2.85794158e-002, 5.45496605e-002,
          -8.84365812e-002, 5.93481399e-002, -1.37092024e-001,
          1.03099741e-001, -1.95513353e-001, -1.80398390e-001,
          -1.29164413e-001, -6.46383176e-003, -2.45515436e-001,
          -1.82883441e-001, -4.17245105e-002, 2.54167477e-003,
          -4.10768427e-002, 4.74236831e-002, 1.20267406e-001,
          1.46928012e-001, 3.32540303e-001, 1.33393884e-001,
          -3.33171077e-002, 2.09130332e-001, -1.43809438e-001,
          -5.05067147e-002, -2.87560135e-001, -3.27459782e-001,
          -2.10838430e-002, -3.10933385e-002, -9.87750664e-002,
          -1.95837766e-001, -5.48770884e-003, -1.22709438e-001,
          -1.67433709e-001, -2.55508780e-001, -1.38326034e-001,
          -1.19186775e-003, -4.10082862e-002, 5.70686348e-002,
          3.86617661e-001, 3.19560289e-001, 2.02776805e-001,
          -2.90046949e-002, 1.20946756e-002, -2.31221452e-001,
          -3.56675275e-002, -1.23763777e-001, -7.61325285e-002,
          5.26251011e-002, -8.41059759e-002, -3.05824280e-002,
          2.40862044e-003, -4.99682352e-002, -1.78185076e-001,
          1.83185130e-001, 7.10774809e-002, 8.01738165e-003,
          1.88532501e-001, 2.37352684e-001, 1.61166877e-001,
          -5.82952872e-002, -3.01282793e-001, 1.70909967e-002,
          -1.00172132e-001, -2.70525277e-001, -1.41866356e-001,
          -1.00098334e-001, -4.11721766e-002, -1.70159325e-001,
          2.71242447e-002, 1.71745420e-001, 4.61014174e-002,
          4.11519557e-002, 1.03106012e-003, 4.86257523e-002,
          -7.06998035e-002, 7.07483850e-003, 3.00644394e-002,
          8.05880353e-002, 1.16716422e-001, 2.15349346e-002,
          2.37626377e-002, 5.20332623e-003, -1.83248911e-002,
          1.12048209e-001, 5.99066378e-004, -2.66348924e-002,
          -3.65078710e-002, 9.24203470e-002, 1.09594442e-001,
          -1.21708505e-001, 4.89552878e-002, 3.19414347e-001,
          1.03346467e-001, 2.98376498e-003, -8.45380351e-002,
          -6.25968724e-002, -1.08823970e-001, 1.90510482e-001,
          -2.18274724e-002, 1.98664129e-001, 1.43976361e-001,
          -5.73698692e-002, 5.56200258e-002, 5.43493219e-002,
          -9.25481692e-002, 1.09881550e-001, -1.43292114e-001,
          -3.00100520e-002, -2.26515099e-001, -2.94083029e-001,
          1.18518181e-001, 9.74185169e-002, -1.20833516e-001,
          -1.33075133e-001, 5.88096753e-002, -1.49231434e-001,
          1.92117661e-001, -1.80215731e-001, -3.43544573e-001,
          -2.51648158e-001, 1.62440792e-001, -7.88147375e-003,
          1.67736426e-001, -3.79371154e-003, -5.54454289e-002,
          2.41574824e-001, -9.62853711e-003, 8.87211189e-002,
          -9.97495353e-002, 1.26252979e-001, 5.84162623e-002,
          -1.22203216e-001, -5.78031950e-002, -1.97906177e-002,
          1.95684120e-001, -2.97287196e-001, -1.12597113e-002,
          -1.50789201e-001, 3.30307931e-001, 5.52940145e-002,
          1.23331010e-001, -7.44949728e-002, 1.48960249e-002,
          2.19320208e-001, -1.04301423e-001, -1.06788263e-001,
          -3.22783679e-001, 6.22024611e-002, 1.92852929e-001,
          -3.86942141e-002, -1.04926176e-001, 7.66716376e-002,
          1.76420301e-001, -1.19169801e-001, -3.10892109e-002,
          -1.50675029e-001, -1.35677636e-001, -4.48642783e-002,
          5.62405623e-002, -3.61592323e-002, 1.85691146e-003,
          -1.87373713e-001, -2.03160644e-001, -1.53991478e-002,
          3.71998549e-002, 1.13386698e-001, -2.00414425e-003,
          4.57342230e-002, -3.63238789e-002, 2.56936997e-001,
          2.42158826e-002, -3.00329447e-001, 1.40500754e-001,
          5.51527888e-002, -2.36330077e-001, -1.01249747e-001,
          1.44908926e-003, -6.41252100e-002, 1.73029695e-002,
          5.83482422e-002, -3.56426775e-001, -1.37747601e-001,
          -7.70213921e-003, 4.38803397e-002, -1.57574773e-001,
          2.24328160e-001, 8.98786038e-002, 1.00029752e-001,
          9.55216140e-002, -6.10074885e-002, -3.07087600e-001,
          -1.32749714e-002, 1.90916106e-001, 2.27383487e-002,
          2.34527528e-001, 1.98714901e-002, -8.89260694e-002,
          -8.20832774e-002, -1.61634222e-001, 5.94889633e-002,
          1.26325905e-001, 1.47439077e-001, -2.15090975e-001,
          1.53635785e-001, 5.18727861e-002, 1.47193164e-001,
          5.23350090e-002, 1.99478120e-001, -2.14310080e-001,
          -4.37014997e-002, 1.43049613e-001, -2.64527082e-001,
          -3.48140180e-001, -2.96605885e-001, -1.18904106e-001,
          3.94545533e-002, -3.18622254e-002, -3.92694652e-001,
          -1.25686318e-001, 3.14887352e-002, -1.00650467e-001,
          -3.66010331e-002, -1.08027145e-001, 2.05377311e-001,
          1.62102133e-001, -4.30759758e-001, -4.37465280e-001,
          -3.37337375e-001, 1.37699440e-001, 3.21661144e-001,
          -7.56738186e-002, -2.31709585e-001, 3.70804369e-002,
          1.14362575e-001, 2.08035827e-001, -1.48777142e-001,
          7.88343996e-002, 1.01905815e-001, -2.45029062e-001,
          -3.12194265e-002, -2.83276647e-001, 2.66380876e-001,
          -5.70996217e-002, 1.73259035e-001, -7.63196051e-002,
          1.90055832e-001, 3.75074208e-001, -3.29712755e-003,
          3.14228819e-004, 2.22795621e-001, -5.80326375e-003,
          -2.50855088e-001, -1.62486255e-001, -3.27955671e-002,
          1.13260001e-001, 3.36662024e-001, -8.71839598e-002,
          -6.42694831e-002, -2.76408345e-001, -3.06208849e-001,
          -4.01148610e-002, -1.29691049e-001, 6.94401935e-002,
          7.29947761e-002, 3.41388911e-001, -7.03367814e-002,
          8.91218515e-005, 6.61086887e-002, -9.93325468e-003,
          -2.02516973e-001, -6.82614669e-002, -1.12186112e-001,
          8.18494707e-002, 2.21244380e-001, 5.54204695e-002,
          -2.23898008e-001, -3.08265716e-001, -1.61374167e-001,
          -1.38485357e-001, -6.46546856e-002, -2.98356973e-002,
          1.63517103e-001, 1.46042770e-002, -1.33888692e-001,
          -3.36788036e-002, 1.43897552e-002, -4.51786816e-002,
          2.08770767e-001, 8.18766728e-002, 1.37817739e-002,
          7.35275224e-002, 1.80891097e-001, -1.49483696e-001,
          1.08983845e-001, -6.10616654e-002, -7.88123235e-002,
          3.19695979e-001, 1.13968164e-001, -2.32901588e-001,
          -1.61427170e-001, 5.75920977e-002, -3.19219753e-002,
          4.64166030e-002, 1.08564021e-002, -2.24260569e-001,
          1.58665299e-001, 1.46368086e-001, 2.18712866e-001,
          3.98308009e-001, -7.67189488e-002, -1.36060059e-001,
          1.16853759e-001, -3.58161986e-001, -1.26377434e-001,
          8.03305861e-003, 2.38416493e-002, -5.03021181e-002,
          -1.35285230e-002, -5.81840463e-002, 1.14102788e-001,
          6.53275102e-002, 1.80014655e-001, 1.26507357e-001,
          5.33979759e-002, -1.33986130e-001, -1.15553737e-001,
          -1.28033325e-001, 5.34215607e-002, -7.43706748e-002,
          4.51707467e-002, 2.09057368e-002, -4.33170199e-002,
          5.73047213e-002, -2.22414851e-001, 7.31844082e-002,
          5.15385456e-002, 7.58307204e-002, 4.78664264e-002,
          3.67862523e-001, 1.63512975e-001, -8.32764059e-002,
          3.01325202e-001, -2.68563747e-001, -2.09546257e-002,
          5.28715588e-002, 1.17171869e-001, 8.16973485e-003,
          6.57129362e-002, 2.76634365e-001, -1.40636876e-001,
          2.03369081e-001, -1.11910723e-001, 1.73963517e-001,
          2.84861237e-001, 1.06179349e-001, 3.33299637e-002,
          9.94815752e-002, 4.47949022e-002, 8.79663229e-002,
          3.54015082e-002, -1.32605284e-001, -1.10515226e-002,
          2.21295580e-002, -1.74259245e-002, -1.61748141e-001,
          -1.21500883e-002, -4.74532992e-002, -5.54698184e-002,
          1.57106653e-001, -2.55259186e-001, -2.32332852e-002,
          -7.67997950e-002, -1.92275465e-001, -3.19080383e-001,
          1.24541000e-001, 1.71454757e-001, -2.41911292e-001,
          1.81582093e-001, 6.46018609e-002, 1.14688702e-001,
          2.94680625e-001, 3.39049369e-001, 1.33209407e-001,
          5.02364784e-002, 1.49732992e-001, 1.08049653e-001,
          2.25270595e-002, 2.36674435e-002, -5.65415472e-002,
          1.39987990e-001, -7.33589455e-002, 9.47861597e-002,
          7.38059282e-002, 8.89958516e-002, 1.21546090e-001,
          -7.65838325e-002, -3.55368435e-001, -1.44640058e-001,
          8.38585272e-002, 4.91574109e-002, -6.44729137e-002,
          1.27127573e-001, -4.57754396e-002, -6.55459240e-003,
          1.02581143e-001, -3.50531042e-001, 1.48598731e-001,
          4.36590277e-002, -2.18759090e-001, -1.17117599e-001,
          8.30970779e-002, -2.31400784e-002, 5.11254966e-002,
          -7.79319741e-003, -1.65013522e-001, -1.42754734e-001,
          8.11712816e-002, -1.11516938e-002, 2.57315367e-001,
          2.17840634e-002, -2.12104209e-002, 8.28398168e-002,
          1.18953772e-001, 5.72340796e-003, 8.62623379e-002,
          -7.03972280e-002, 8.47526714e-002, -1.00139283e-001,
          1.90203134e-002, 1.40783668e-001, -1.10683896e-001,
          1.76917449e-001, -2.91974455e-001, 3.39067057e-002,
          1.07999794e-001, -4.60521281e-002, -3.40400428e-001,
          -6.82396889e-002, 7.09656626e-002, 1.71106141e-002,
          1.82997286e-001, -2.90317275e-002, -1.74860030e-001,
          2.51532402e-002, 3.95779982e-002, -2.55729139e-001,
          -1.58366531e-001, -1.39053449e-001, -8.37202817e-002,
          2.20951200e-001, -6.49026334e-002, -6.54107779e-002,
          2.89778084e-001, 8.09972137e-002, -1.46328032e-001,
          7.50156417e-002, -1.01450711e-001, -4.40923423e-002,
          7.53834322e-002, -3.19229672e-003, 3.00034676e-002,
          3.24816912e-001, 1.14663348e-001, 4.47881371e-002,
          -5.19359373e-002, -1.79739863e-001, 3.63550782e-002,
          -1.00790523e-001, -1.43804714e-001, -3.08011264e-001,
          1.50103688e-001, -1.16242915e-001, -1.72100395e-001,
          -7.80134648e-002, -3.00095528e-001, 2.79424399e-001,
          -5.92960194e-002, -1.07180677e-001, -1.44677147e-001,
          3.30243886e-001, 1.96278170e-001, -1.79089040e-001,
          -8.87682736e-002, 3.83052677e-002, 3.23539078e-002,
          -8.32387730e-002, -2.99026761e-002, -1.35046924e-002,
          1.59475729e-001, 1.16829157e-001, -9.79631767e-002,
          -3.51000926e-003, 1.84324756e-001, 2.29702055e-001,
          -1.96832314e-001, -1.73253536e-001, -1.12791032e-001,
          3.47695470e-001, 1.59379706e-001, -2.10147873e-001,
          4.85513598e-001, 3.66041094e-001, 2.51037627e-001,
          -2.30103344e-001, -4.11124766e-001, -1.85626388e-001,
          1.29255772e-001, 1.02656469e-001, 1.85277224e-001,
          -3.59177142e-002, -2.33515829e-001, -6.92008808e-002,
          1.05744265e-001, 1.25404701e-001, 1.93866983e-001,
          7.27653652e-002, -1.01296678e-001, 3.28271724e-002,
          4.42057401e-001, 2.90903151e-001, 5.77777112e-003,
          -1.08795665e-001, -2.08685011e-001, -2.16232210e-001,
          2.08006144e-001, -1.95749011e-002, 8.57054293e-002,
          1.25945166e-001, -1.24465853e-001, -2.17875257e-001,
          -1.07607618e-001, -1.05766729e-001, -2.55748779e-001,
          3.05975694e-002, -8.81355852e-002, -8.04095343e-002,
          -1.47515193e-001, -1.44399926e-001, -8.28581154e-002,
          2.85225362e-001, -1.62650764e-001, 2.27187350e-001,
          3.49532157e-001, -1.55997336e-001, -1.03011020e-001,
          1.42929658e-001, -5.27923703e-002, 8.59978721e-002,
          4.33129705e-002, -2.32161924e-001, -7.19731394e-003,
          1.80536419e-001, 2.58570220e-002, 2.33167008e-001,
          7.38318190e-002, -1.48778453e-001, 5.70386276e-002,
          4.80835736e-001, -3.74562681e-001, 1.13459274e-001,
          1.62181273e-001, 3.06737404e-002, -4.46087793e-002,
          -2.30248109e-003, 1.10094242e-001, 1.32741660e-001,
          6.78206608e-002, -1.72235593e-001, -1.03472076e-001,
          -5.31487279e-002, 5.27260862e-002, -1.05813675e-001,
          1.10944375e-001, 1.71701357e-001, 1.49080664e-001,
          1.46192551e-001, -3.70993853e-001, 9.12668407e-002,
          2.11769994e-003, 9.64756086e-002, 1.34162799e-001,
          -9.51228216e-002, 1.06435470e-001, -9.56088528e-002,
          1.66097760e-001, -3.41924071e-001, 5.71275726e-002,
          8.29909742e-002, -2.34126672e-001, -9.54227075e-002,
          -3.27002518e-002, 1.16518848e-002, -5.91495782e-002,
          3.97758372e-002, 9.41068009e-002, 1.48560897e-001,
          2.68541008e-001, 1.29039824e-001, 2.19407436e-002,
          -1.05312109e-001, -9.09666792e-002, 7.02003613e-002,
          -5.43196639e-003, -9.42055285e-002, 7.97482952e-002,
          -1.46529637e-002, 4.03712057e-002, 1.17426127e-001,
          -1.92357600e-001, 6.94722459e-002, -1.57948270e-001,
          1.90079749e-001, -5.36285155e-002, 3.20822336e-002,
          2.01336723e-002, 2.28464277e-003, -1.03429951e-001,
          -1.95793241e-001, -1.72413737e-001, -2.74207175e-001,
          -5.47128059e-002, 1.63158044e-001, 8.16078633e-002,
          1.15231080e-002, 1.81389123e-001, 9.75484252e-002,
          -1.07166111e-001, 2.86907256e-001, -8.95390436e-002,
          9.94297192e-002, 1.09726541e-001, -5.18414490e-002,
          -1.64601550e-001, 2.35268101e-002, 1.61592782e-001,
          -4.00300920e-002, 4.21773754e-002, -1.68633267e-001,
          8.97895768e-002, 1.79748923e-001, 6.22190386e-002,
          -8.78631771e-002, 6.15641698e-002, 9.74902362e-002,
          1.98112074e-002, -2.54784316e-001, -1.31713614e-001,
          -1.72995292e-002, -2.80134887e-001, -5.80665714e-004,
          -1.30292885e-002, 8.23125318e-002, 1.63151503e-001,
          -4.62926440e-002, -9.16664153e-002, -4.33937162e-002,
          1.61404870e-002, -2.76953489e-001, 4.54057753e-002,
          -8.90113786e-002, -1.43069088e-001, 1.86200380e-001,
          -2.32334416e-002, -2.14848772e-001, -1.63436517e-001,
          1.91075608e-001, -1.28120169e-001, 2.97697872e-001,
          2.06410542e-001, 1.33029759e-001, 1.53434306e-001,
          7.16768904e-003, -1.72424093e-001, 3.07168961e-002,
          1.88773510e-003, 5.99208996e-002, 2.23201975e-001,
          8.17429796e-002, -5.22937775e-002, -1.92034528e-001,
          -1.60336494e-001, -4.31493819e-002, 5.95427603e-002,
          -3.93331610e-003, -4.57006454e-001, -8.14569518e-002,
          1.93351060e-001, 9.69733819e-002, -1.69860888e-002,
          7.58206705e-003, -6.02458641e-002, -7.80834109e-002,
          8.30031484e-002, -1.02872722e-001, 6.01582229e-002,
          1.76131666e-001, 1.21387050e-001, -1.43085912e-001,
          -1.12830289e-001, -1.13540098e-001, 8.32346082e-002,
          -1.54085636e-001, 4.61248420e-002, -3.99911031e-002,
          1.83184713e-001, 8.81956741e-002, -1.78293008e-002,
          -1.80727232e-003, 8.34603831e-002, 2.54659593e-001,
          1.94667712e-001, 2.19910130e-001, 1.59663390e-002,
          2.31455058e-001, 1.48142830e-001, -1.59560069e-002,
          -1.18210576e-001, 2.69319922e-001, -3.17962766e-002,
          3.02439015e-002, -1.86407581e-001, 8.41628388e-003,
          2.98955571e-002, 3.68199162e-002, -2.07048357e-001,
          2.30979666e-001, 2.40121260e-001, 1.30820081e-001,
          -1.98859781e-001, -2.10776120e-001, 4.38602827e-002,
          3.30641717e-001, 2.12444961e-001, -4.63675670e-002,
          -6.10080697e-002, 1.69331029e-001, -1.22185431e-001,
          1.04307845e-001, 1.01806179e-001, -1.01686753e-001,
          3.56519282e-001, 4.74090166e-002, -1.60449430e-001,
          3.04363161e-001, 3.95594627e-001, 2.86626607e-001,
          -1.08429179e-001, -2.37996742e-001, 7.90869370e-002,
          4.15744275e-001, 5.39769279e-003, 6.56854063e-002,
          1.42325997e-001, 1.26749977e-001, -4.27007116e-003,
          3.51774693e-002, -1.14684977e-001, 3.07327621e-002,
          9.08275992e-002, 6.15990087e-002, -3.44724543e-002,
          -1.54208422e-001, -1.86278164e-001, -1.76391348e-001,
          -9.20763463e-002, 7.09534585e-002, -1.01993568e-001,
          8.07913542e-002, -2.89206449e-002, -1.84186056e-001,
          2.15584356e-002, 1.13422591e-002, 3.59317497e-003,
          -2.60584623e-001, -3.31484050e-001, -1.88807175e-001,
          1.95441470e-001, 1.35297865e-001, -1.12235388e-002,
          1.70601860e-001, 9.14329812e-002, -2.26186305e-001,
          2.21218728e-002, -2.91970789e-001, -5.72799183e-002,
          2.55107522e-001, -2.86400527e-001, -2.30309963e-002,
          -1.11223385e-001, -7.65523016e-002, 1.89334363e-001,
          2.72611350e-001, -2.41971295e-002, 1.89284846e-001,
          3.91575582e-002, -1.85429916e-001, -1.33900911e-001,
          2.19198763e-001, -1.09117046e-001, -2.75365007e-003,
          2.36975431e-001, 1.40535627e-002, -1.47733033e-001,
          -1.02956958e-001, -6.39895648e-002, -4.39066812e-002,
          5.90115525e-002, 1.10901721e-001, 4.80505032e-003,
          1.59371927e-001, -5.91279566e-002, -1.72727890e-002,
          -2.05953553e-001, -4.64764386e-001, -1.03095211e-001,
          -3.02698184e-002, -2.13353902e-001, -4.58978713e-002,
          -1.12070004e-002, 3.16375345e-002, 8.90588388e-002,
          -1.45524994e-001, -1.57914206e-001, -1.47126958e-001,
          4.11038250e-002, -2.79923808e-002, -1.96483389e-001,
          1.63765401e-001, -5.87614179e-002, 8.40457082e-002,
          1.43176630e-001, 1.05769642e-001, -4.98222820e-002,
          -9.61594805e-002, -4.11212817e-002, -1.30930409e-001,
          6.28637969e-002, -1.14289567e-001, 7.89980218e-002,
          -2.70087011e-002, 1.11059159e-001, -7.81512186e-002,
          3.84596996e-002, 7.11485967e-002, -1.32647574e-001,
          4.68116514e-002, -1.77552834e-001, -1.40167773e-001,
          -3.29429582e-002, -1.96957290e-001, -8.26320872e-002,
          -1.33448496e-001, 2.57873893e-001, 8.53214115e-002,
          -4.42191102e-002, -8.97215009e-002, -3.34019959e-003,
          -2.08612215e-002, -2.23725364e-001, -1.62250191e-001,
          2.85302363e-002, 1.13235041e-001, -1.96452022e-001,
          5.81605658e-002, 1.67255655e-001, -2.61486582e-002,
          7.05958018e-003, 1.16459824e-001, -2.51456373e-003,
          3.63143414e-001, 1.11472532e-001, -1.09941900e-001,
          -7.16727301e-002, 1.71239242e-001, 1.67983398e-001,
          4.88987155e-002, -1.48878328e-003, 2.63608605e-001,
          2.27059964e-002, -1.70813613e-002, -2.62730837e-001,
          -1.46387666e-001, -1.52276652e-002, 1.50631946e-002,
          1.28754020e-001, 3.16967703e-002, 2.33120680e-001,
          8.99148434e-002, 3.79814804e-002, -9.62574333e-002,
          -2.35546559e-001, -5.53722642e-002, 2.36847848e-002,
          2.06729814e-001, 2.52825022e-001, 5.50738052e-002,
          -6.19737729e-002, -1.01670898e-001, -1.39987916e-001,
          2.94140577e-001, -1.73549891e-001, 9.63885710e-002,
          1.01378240e-001, 2.61000241e-003, 9.25767347e-002,
          -8.13815445e-002, 7.31039420e-003, 1.82716593e-001,
          2.69975990e-001, -1.67337939e-001, 1.26174271e-001,
          -1.27394840e-001, -1.01302832e-001, -3.12895656e-001,
          -6.47025257e-002, 1.40853852e-001, -1.33097861e-002,
          3.03023517e-001, -2.28643835e-001, -1.37453631e-001,
          5.17356992e-002, 1.18675262e-001, -1.57667652e-001,
          -2.57446598e-002, 8.00720602e-003, -1.71642378e-002,
          1.07263647e-001, -4.48863953e-001, 1.69173867e-001,
          -2.88225338e-002, 5.02232611e-002, -2.29798943e-001,
          -1.66428506e-001, -6.21573403e-002, 1.25545561e-001,
          -2.81611264e-001, -1.28313720e-001, 9.39459132e-004,
          5.72669543e-002, 1.24129102e-001, -1.70911372e-001,
          -1.51240408e-001, 4.72209491e-002, 8.27678596e-004,
          -4.67766589e-003, -3.03067081e-002, -1.10704951e-001,
          3.49180907e-001, 1.79691344e-001, 1.12180563e-003,
          -1.01460703e-001, -6.83057308e-002, 4.38778549e-002,
          -1.84752598e-001, -1.49776235e-001, 2.05415905e-001,
          1.07529722e-001, 1.03247978e-001, -1.06608726e-001,
          -8.60129669e-002, 2.99888581e-001, 1.32185563e-001,
          7.36971339e-003, 1.60111651e-001, -8.07823837e-002,
          -3.84388305e-002, 1.26493827e-001, 2.68308967e-002,
          -2.74526119e-001, 8.31580088e-002, -3.83502319e-002,
          -1.72901854e-001, -7.51636773e-002, -2.50479460e-001,
          3.74462306e-001, -6.31171092e-002, -1.75992444e-001,
          -7.50714242e-002, 8.73474404e-002, 1.51042104e-001,
          -2.28631929e-001, -1.53882325e-001, 2.63266683e-001,
          4.49349374e-001, 3.63741778e-002, 8.68133008e-002,
          -1.52002433e-002, 2.08140671e-001, -1.25381351e-002,
          -1.79578871e-001, 1.07696921e-001, -6.76066801e-002,
          6.36822358e-002, -2.60439515e-001, -1.90994248e-001,
          3.09627056e-001, 3.88654858e-001, 4.18844879e-001,
          -4.40777913e-002, -1.75695363e-002, 8.69179592e-002,
          3.52019250e-001, -5.32547049e-002, 1.20079972e-001,
          -4.14794460e-002, -7.53198117e-002, 4.37830873e-002,
          1.21777477e-002, -2.46870354e-001, -2.79679239e-001,
          -6.61619306e-002, -1.62924320e-001, -1.57528929e-002,
          4.75377217e-002, 1.89516127e-001, -3.33367400e-002,
          7.74833336e-002, -1.54740319e-001, 5.46996556e-002,
          3.72526534e-002, -4.56003606e-001, -1.32749289e-001,
          4.89691608e-002, 8.92219990e-002, 2.75653806e-002,
          2.69640476e-001, 1.53311253e-001, -1.05317347e-001,
          -3.31411898e-001, -4.16594259e-002, 5.76702841e-002,
          1.36531040e-001, 1.79871976e-001, -6.06206879e-002,
          1.25377655e-001, 1.86018065e-001, -1.88361824e-001,
          -3.22783381e-001, -3.19546044e-001, -1.26798838e-001,
          7.42556080e-002, 2.61020124e-001, -1.23471558e-001,
          1.10698678e-001, -1.07817069e-001, 3.78873646e-002,
          -3.77465710e-002, -1.90671459e-001, -3.50723892e-001,
          -1.90822594e-002, -5.62298074e-002, 7.19246268e-002,
          1.25135466e-001, -9.10868496e-003, -2.22096909e-002,
          -4.08284143e-002, -3.09017822e-002, -2.82756656e-001,
          1.15474269e-001, 3.69275987e-001, -3.52296978e-002,
          6.01839535e-002, 1.73418358e-001, 4.89902683e-002,
          -1.16727836e-001, -1.35699853e-001, -1.01897322e-001,
          1.80913746e-001, 2.67689764e-001, 8.44889507e-002,
          4.94081020e-001, 6.01770990e-002, -1.26637042e-001,
          -1.92546189e-001, 1.94686666e-001, -5.64268641e-002,
          8.79569277e-002, 2.75894962e-002, -2.95310169e-002,
          -2.72806622e-002, -9.35312659e-002, -1.37500554e-001,
          -8.62544179e-002, 6.47027120e-002, 5.59463613e-002,
          6.74159303e-002, 3.59430239e-002, 1.34272594e-002,
          -1.70741435e-002, -2.99214512e-001, -2.15412170e-001,
          -2.52231866e-001, -1.31691009e-001, -2.94109210e-002,
          -7.64270350e-002, -9.80772823e-002, -2.80083269e-001,
          -2.08502248e-001, 9.94808748e-002, -9.31666493e-002,
          -6.53237943e-003, 3.11180323e-001, 4.02258411e-002,
          -9.02537629e-002, 2.60531493e-002, -1.80583268e-001,
          -5.29855676e-002, 7.05235302e-002, 1.69446871e-001,
          5.02397157e-002, 1.34863257e-001, 4.59904782e-002,
          1.23530425e-001, 2.56645419e-002, -2.31692299e-001,
          -6.51084408e-002, -2.53984720e-001, 5.25766760e-002,
          -3.31916614e-003, 4.42396589e-002, 2.27342263e-001,
          7.63598979e-002, 1.00275025e-001, -1.15909427e-001,
          1.11577049e-001, -1.23612687e-001, 2.36279935e-001,
          1.90086029e-002, 4.01556492e-002, -1.96189538e-001,
          4.57765162e-002, 7.13138208e-002, -3.37506801e-001,
          -1.64770871e-001, -1.97713807e-001, 1.13338195e-001,
          1.37347132e-001, 1.45193115e-001, -1.73001051e-001,
          1.32439002e-001, 9.77797434e-002, -4.09026980e-001,
          1.47882737e-002, 1.75973680e-002, 1.79420322e-001,
          2.60527402e-001, 7.51180798e-002, -2.73718327e-001,
          1.21808857e-001, -1.81324095e-001, -2.06753820e-001,
          1.78499699e-001, -1.07690416e-001, 2.37428963e-001,
          -7.35771889e-003, -1.11086197e-001, -9.02188793e-002,
          -3.88317332e-002, -3.67462307e-001, -3.07607949e-001,
          1.61194816e-001, -1.45629361e-001, 2.92390287e-001,
          1.46017551e-001, 1.08442314e-001, 1.38294725e-002,
          1.48566216e-001, -1.53594792e-001, -5.58796108e-001,
          -2.20219344e-001, -1.71323270e-001, 1.52524367e-001,
          1.29793480e-001, -6.24788329e-002, -8.19875002e-002,
          2.59919912e-001, 4.95982170e-002, 4.55131754e-002,
          3.19449455e-002, -2.65874952e-001, 6.77640438e-002,
          2.34956712e-001, -5.41930385e-002, -6.00139722e-002,
          -2.62137353e-001, -1.97845578e-001, -2.24193290e-001,
          -1.40786514e-001, -1.07709244e-001, 2.00981498e-001,
          1.41321108e-001, 1.19022667e-001, -1.31935805e-001,
          -1.56154633e-001, -5.43962121e-002, -3.23034406e-001,
          -3.92541915e-001, 1.15209734e-002, 9.27501544e-002,
          -7.49344900e-002, 4.62762006e-002, -1.89454451e-001,
          1.67440139e-002, 1.66512892e-001, -6.51246542e-003,
          -1.99460194e-001, -2.56482631e-001, -5.72436638e-002,
          1.04154967e-001, -5.21379039e-002, -2.47764140e-001,
          2.52977729e-001, 3.53765488e-001, 1.87269032e-001,
          -2.08650842e-001, -2.65051648e-002, 3.06049380e-002,
          -8.03149268e-002, -1.12314001e-002, -3.41278431e-003,
          -2.94477582e-001, -2.46408105e-001, -3.67902428e-001,
          -5.57062924e-001, -2.25964040e-001, -1.14718579e-001,
          -2.16722693e-002, -2.58810014e-001, -2.63948739e-001,
          3.31949666e-002, 7.14913011e-002, -6.22135028e-002,
          -3.29213738e-001, -2.70727724e-001, -1.66527316e-001,
          1.24051131e-001, -5.83326370e-002, -8.17843601e-002,
          -1.58457026e-001, -2.23284513e-002, -1.21437997e-001,
          -3.79743010e-001, -3.01395692e-002, -2.29281083e-001,
          -2.86240309e-001, -1.37078464e-001, -8.95751789e-002,
          2.69382298e-001, 1.82395190e-001, -1.39623955e-001,
          -3.53888512e-001, -2.04394281e-001, -4.89307493e-002,
          -1.00938648e-001, 6.26240298e-002, 1.41745940e-001,
          -2.28727102e-001, 7.97780827e-002, -1.68851558e-002,
          1.46883339e-001, 5.39907487e-003, -4.45203573e-001,
          -5.74370623e-001, -6.67027533e-002, -1.94735885e-001,
          -2.40232006e-001, -1.10447086e-001, -2.53868967e-001,
          -2.31879935e-001, -2.57443428e-001, -4.89021689e-001,
          -6.92241907e-001, -3.59624892e-001, -3.44655544e-001,
          2.86492351e-002, 1.52288079e-001, 3.87546241e-001,
          2.04712316e-001, 2.77826250e-001, -1.40660092e-001,
          3.89924720e-002, 4.26575899e-001, 2.47681007e-001,
          -7.06720650e-002, 1.30077541e-001, 1.42108724e-001,
          -1.74812630e-001, -1.03920490e-001, -2.67862082e-001,
          -3.02704036e-001, -4.52223159e-002, -2.29014993e-001,
          -2.77748942e-001, -1.25879690e-001, -2.10555851e-001,
          -2.34153062e-001, 4.25603725e-002, -1.49849933e-002,
          -2.27862000e-001, -3.81725468e-002, -2.28266209e-001,
          -1.66793853e-001, -3.39107275e-001, -3.36192697e-001,
          -1.28124312e-001, -1.93691492e-001, -3.42526197e-001,
          -3.97558510e-001, -3.41198631e-002, -6.75619766e-002,
          -2.01687187e-001, 2.61444617e-002, 1.66353524e-001,
          9.57662836e-002, 7.71225840e-002, 7.87864998e-002,
          -9.60036442e-002, 1.38413697e-001, -1.37573108e-001,
          -2.60246336e-001, -2.76804179e-001, 2.62876675e-002,
          -3.63089256e-002, 4.03277464e-002, 1.50839850e-001,
          -4.62354273e-002, -6.98290691e-002, -4.11046803e-001,
          3.61005217e-001, -1.43025264e-001, -3.83113563e-001,
          -2.18755066e-001, 1.00905269e-001, -2.40494683e-001,
          -3.62485111e-001, 2.22387180e-001, 3.10223371e-001,
          3.29330027e-001, -1.44263487e-002, -2.05854222e-001,
          -2.23418504e-001, 3.10498029e-002, -1.18839495e-001,
          -2.11079910e-001, -2.43806317e-002, 1.53788567e-001,
          -1.30154788e-001, -2.51632184e-002, -3.68066654e-002,
          6.26313686e-002, -1.11829817e-001, 2.39846915e-001,
          -1.97779492e-001, -6.46041110e-002, -1.69295311e-001,
          -9.51641649e-002, 9.68988389e-002, 7.95833692e-002,
          1.80090487e-001, 1.06873505e-001, 1.82049870e-001,
          -3.72825891e-001, -1.96710408e-001, -2.55343825e-001,
          1.78900123e-001, 5.60751371e-002, -8.05548057e-002,
          -7.73492157e-002, 3.07010133e-002, -6.58574849e-002,
          2.40225699e-002, 6.36516325e-003, -4.27086391e-002,
          1.30003363e-001, -4.71591530e-003, -1.57156110e-001,
          8.87939036e-002, -1.14684245e-002, -8.52190927e-002,
          -1.15801781e-001, -7.44432071e-003, -1.42462859e-002,
          -3.33804160e-001, -2.64375091e-001, -7.25757331e-002,
          1.24491096e-001, -8.26608762e-002, 1.68056950e-001,
          -7.43136629e-002, -5.72242625e-002, -4.89134014e-001,
          -1.42328694e-001, 1.85969710e-001, 2.46596262e-001,
          2.52895713e-001, -6.10573962e-002, 2.89798137e-002,
          -8.50203335e-002, 7.25706294e-002, -3.65929544e-001,
          2.86089424e-002, -3.04392934e-001, -3.56195658e-001,
          -2.80005068e-001, -3.54126655e-002, -1.63578972e-001,
          -3.42727363e-001, -2.56275147e-001, -1.52949110e-001,
          -2.10724212e-002, 1.14712812e-001, -1.13105044e-001,
          -1.62331685e-001, -7.45949894e-002, 3.95910218e-002,
          2.80343648e-002, -3.15776497e-001, -2.87881225e-001,
          -3.34948957e-001, -1.53412208e-001, 1.37875915e-001,
          1.19076759e-001, -2.07886234e-001, -1.93216339e-001,
          -1.71379790e-001, 5.91269927e-004, -6.65551662e-001,
          1.14898071e-001, 1.92306772e-001, 1.94474764e-003,
          -1.64616019e-001, -1.92133635e-001, 1.31403312e-001,
          1.83942601e-001, 4.67568859e-002, -3.11046749e-001,
          -3.32583487e-001, -1.16221905e-001, -2.54499912e-001,
          -4.83935744e-001, -2.32725874e-001, -4.91223745e-002,
          -1.28395846e-002, -4.09427077e-001, -2.99151152e-001,
          -2.19818980e-001, -1.62798449e-001, -2.33193785e-001,
          -2.26606995e-001, 1.99521203e-002, -5.28642610e-002,
          -1.69339001e-001, -1.85915709e-001, -3.02092820e-001,
          -4.78944272e-001, -5.18058598e-001, -3.19423169e-001,
          -3.40105861e-001, -2.17849895e-001, 2.00876996e-001,
          3.30862433e-001, 1.31342918e-001, -3.41112852e-001,
          -1.00198258e-002, -1.99526116e-001, 4.79713641e-002,
          1.85023934e-001, 9.03183818e-002, 4.44583669e-002,
          3.27755004e-001, 2.30041072e-001, -5.69587871e-002,
          -7.44658291e-001, -4.97093499e-001, -5.00069559e-001,
          -6.56019926e-001, -2.50654042e-001, -5.00612915e-001,
          -5.25558770e-001, -3.51462096e-001, -6.51028097e-001,
          -1.12694085e-001, -2.89647967e-001, -4.21053827e-001,
          -6.48294330e-001, -4.48418379e-001, -1.84234651e-003,
          3.60271893e-002, 1.33582905e-001, -7.30170757e-002,
          -1.15274787e-001, -6.32457018e-001, -3.35263908e-001,
          -1.65057302e-001, -6.65043816e-002, -3.21178555e-001,
          -1.92514397e-002, -2.98174918e-001, -1.48121163e-001,
          2.80353636e-001, -2.15833411e-001, -8.90513211e-002,
          -5.50078638e-002, -9.99937952e-003, 2.42965266e-001,
          2.49065205e-001, 1.26065254e-001, 8.26848745e-002 ]
   decision_functions:
      -
         sv_count: 1
         rho: -1.1654128625609092e+001
         alpha: [ 1. ]
         index: [ 0 ]
