%YAML:1.0
my_svm: !!opencv-ml-svm
   svm_type: C_SVC
   kernel: { type:LINEAR }
   C: 5.0000000000000000e-001
   term_criteria: { epsilon:1.1920928955078125e-007, iterations:1000 }
   var_all: 1764
   var_count: 1764
   class_count: 2
   class_labels: !!opencv-matrix
      rows: 1
      cols: 2
      dt: i
      data: [ -1, 1 ]
   sv_total: 1
   support_vectors:
      - [ 2.18173135e-002, -1.14275575e-001, -2.24962621e-003,
          -1.23924471e-001, -9.82894469e-003, 1.02779001e-001,
          -2.41485164e-001, -1.93374157e-001, -2.65996963e-001,
          -2.38452718e-001, -4.07327294e-001, -6.52917027e-002,
          -5.53635061e-001, -4.84239757e-001, 4.38619666e-002,
          -8.71893540e-002, 9.88244042e-002, -1.12075739e-001,
          -4.27973330e-001, 1.75675988e-001, -4.67987247e-002,
          -3.23652685e-001, -9.58572887e-003, 1.37403086e-001,
          -3.04270089e-001, -7.32433721e-002, -3.18272978e-001,
          -3.92267674e-001, -2.58622259e-001, -3.33362520e-001,
          -4.01971340e-001, -2.92554557e-001, -3.64047647e-001,
          -2.75040299e-001, 9.86492261e-003, -1.78626135e-001,
          -3.41575235e-001, 3.13196927e-001, 5.00391245e-001,
          -6.88383207e-002, -2.98172176e-001, -3.29273753e-002,
          2.74913907e-001, 2.53228217e-001, -9.44737718e-002,
          -4.40767020e-001, 2.10496888e-001, -2.53801286e-001,
          -1.36832163e-001, -5.10647953e-001, -1.34366781e-001,
          2.37413585e-001, -1.91109732e-001, -1.70943528e-001,
          -1.40782192e-001, -1.40963122e-001, -2.06993088e-001,
          -2.13457346e-001, -9.78703275e-002, -7.94612095e-002,
          7.82781541e-002, 7.52757713e-002, -6.84821382e-002,
          -3.60811204e-002, -3.57624024e-001, -5.83182871e-001,
          -4.78190452e-001, -7.53429234e-002, 1.24145523e-001,
          -1.92675948e-001, -4.03013527e-001, -1.30858108e-001,
          -2.20412031e-001, 3.05233657e-001, -1.94468945e-001,
          2.41904277e-002, 1.09500036e-001, 1.41234517e-001,
          1.41453758e-001, -1.88615263e-001, -2.90219020e-002,
          -5.18698692e-001, 1.12303257e-001, -4.07999128e-001,
          -1.67908389e-002, -6.49253801e-002, 1.63137078e-001,
          6.97301477e-002, 1.37417376e-001, -2.29382217e-001,
          2.21549366e-002, 4.00018185e-001, -1.25566721e-001,
          -1.63119763e-001, 5.43898284e-001, 1.99985906e-001,
          -1.76950485e-001, -3.04895103e-001, -1.37075588e-001,
          -3.36362906e-002, -2.10658222e-001, -3.25130522e-001,
          -6.13346398e-001, 1.03293389e-001, 1.50094032e-001,
          7.96248093e-002, 6.28353143e-003, -7.40451505e-003,
          -1.86594054e-001, 3.20027620e-001, -7.07339868e-002,
          5.72118878e-001, 2.43906826e-001, -1.58391118e-001,
          -2.58185476e-001, 2.74910748e-001, 8.59798118e-003,
          -6.39994323e-001, -3.28406468e-002, -5.84103167e-001,
          4.99148637e-001, 1.83207780e-001, 2.61558324e-001,
          -2.88211107e-001, 1.50736019e-001, -1.18059687e-001,
          2.08377525e-001, 5.55353224e-001, 4.00255155e-003,
          -3.22020277e-002, 1.40361592e-001, 8.22745077e-003,
          -9.79953259e-002, 2.99786001e-001, 1.63110465e-001,
          1.16467357e-001, -1.35234639e-001, 2.51827063e-003,
          -1.30038047e-002, 1.78623810e-001, 8.91244337e-002,
          3.06469947e-001, 1.04883805e-001, 3.69904488e-001,
          -3.44687432e-001, -1.15731120e-001, -1.97527424e-001,
          8.41963813e-002, -3.52677554e-002, -3.40805471e-001,
          -3.97136211e-001, 6.84728548e-002, -1.85968086e-001,
          -4.50909674e-001, -1.20227799e-001, 1.71721503e-001,
          1.08651020e-001, -1.42581165e-001, -4.27899867e-001,
          -1.60906062e-001, 1.13101400e-001, -2.15605989e-001,
          -2.27268096e-002, -3.20488274e-001, -2.61105914e-002,
          -2.38913432e-001, -7.29888631e-003, -1.79263607e-001,
          -1.09624555e-002, -6.52007684e-002, 2.74476588e-001,
          -5.44594154e-002, -4.80735272e-001, -2.33989000e-001,
          -1.53080851e-001, -8.82654637e-002, -3.54138106e-001,
          -4.46951278e-002, 1.48249581e-001, 5.36835156e-002,
          -4.11384761e-001, 2.25855514e-001, 5.02185166e-001,
          2.62615025e-001, 1.42282188e-001, 3.21973376e-002,
          -5.18699706e-001, -5.32897651e-001, -4.16479528e-001,
          -2.20088989e-001, 5.73284388e-001, 4.71790999e-001,
          1.24921106e-001, 5.65784574e-002, -1.99652568e-001,
          -4.29109305e-001, -5.40761888e-001, -2.15810582e-001,
          -2.41752282e-001, -3.86358052e-001, -1.40988648e-001,
          -1.50011539e-001, -3.15529495e-001, -6.58705294e-001,
          -2.45993182e-001, 1.16208680e-001, 4.51670326e-002,
          -1.58451512e-001, 1.19076893e-001, 1.16595462e-001,
          -3.37799489e-001, -2.74707794e-001, -3.18441391e-001,
          -7.14221448e-002, -2.81437039e-002, 2.47976497e-001,
          1.03410490e-001, 6.16646707e-002, 6.39457926e-002,
          2.49177873e-001, 1.76959351e-001, 2.60521658e-002,
          -4.69069630e-001, -6.31421149e-001, -3.61993313e-001,
          7.86435485e-001, 5.63649535e-001, 1.07995689e-001,
          3.83825272e-001, 6.52058780e-001, 2.58333266e-001,
          -8.00059214e-002, -1.92099232e-002, 5.23619711e-001,
          -8.36795807e-001, -5.17736018e-001, -5.45069575e-001,
          -2.12493539e-001, -6.10369444e-001, -3.62656474e-001,
          -4.26888555e-001, -3.75014186e-001, -6.18394971e-001,
          -1.00995608e-001, 1.43650174e-001, 1.90469099e-003,
          6.03309087e-002, -1.82860911e-001, -7.20963240e-001,
          -5.28584599e-001, -4.78126973e-001, -1.22710474e-001,
          -2.38309279e-001, 3.27325672e-001, 6.75547644e-002,
          -6.82588369e-002, 2.12070480e-001, 1.95199400e-001,
          5.49697271e-003, 8.09333622e-002, -3.23229671e-001,
          1.06237344e-001, -1.18904352e-001, -2.14328319e-001,
          9.84646827e-002, 2.24879086e-001, -6.31678402e-002,
          -7.75291622e-002, -1.43857479e-001, 4.97283228e-002,
          -2.48923361e-001, -3.06269556e-001, 1.95481092e-001,
          -2.40836725e-001, 2.49828607e-001, 2.93471843e-001,
          1.34071797e-001, 4.28573012e-001, -2.70368308e-001,
          -2.93867022e-001, -1.52433231e-001, -2.29551598e-001,
          -2.33381823e-001, -1.09031029e-001, -1.17238127e-001,
          -1.74080253e-001, -1.23480178e-001, -7.05545917e-002,
          -1.72460765e-001, -4.02601928e-001, -3.53634715e-001,
          -2.23278999e-001, -4.86285090e-002, 1.53841615e-001,
          1.59704044e-001, 2.58508146e-001, 8.83685518e-003,
          -1.01568941e-002, 7.40681589e-002, -3.62429380e-001,
          -2.21731529e-001, 1.88006952e-001, 6.49543479e-002,
          -8.40124190e-002, -1.92266911e-001, -3.77353770e-003,
          -2.13671446e-001, -4.62130755e-002, -1.17894905e-002,
          1.03472114e-001, -1.69045717e-001, -9.72051546e-002,
          -9.38967895e-003, 1.40573144e-001, 1.54761404e-001,
          -2.14494631e-001, -6.86086476e-001, 1.13662958e-001,
          -3.56367439e-001, -7.07286298e-002, 9.87566710e-002,
          4.36362252e-002, -4.30134451e-003, -2.25283712e-001,
          -1.50819525e-001, 3.97373438e-001, 2.62762070e-001,
          1.29950717e-001, 9.43510830e-002, 3.98798205e-004,
          -3.64486352e-002, -1.16478749e-001, -2.02565659e-002,
          6.09626621e-002, 4.35330629e-001, 1.92704946e-001,
          1.09698206e-001, 1.05885118e-001, 2.90162265e-002,
          1.46367803e-001, 1.06308550e-001, -1.63894355e-001,
          2.18466192e-001, 6.46243468e-002, 1.14102010e-002,
          -4.97134365e-002, -2.42237132e-002, 1.16022885e-001,
          2.02746287e-001, -5.04564755e-002, -9.44738761e-002,
          1.16517216e-001, -3.13344449e-001, 1.59138247e-001,
          -3.96923661e-001, 8.21082145e-002, 1.33410454e-001,
          1.28651097e-001, -1.85472909e-002, 9.18090343e-002,
          3.86086591e-002, 2.23853424e-001, -1.30939677e-001,
          -1.43352479e-001, -1.82905406e-001, -2.46643111e-001,
          1.80662155e-001, 3.75210419e-002, -1.82235941e-001,
          -1.43467963e-001, 5.87461442e-002, -7.59339929e-002,
          8.10159072e-002, 1.02601662e-001, -4.07799840e-001,
          -1.00239426e-001, -1.90552667e-001, 2.42808461e-001,
          1.40211985e-001, 1.39212161e-002, -2.42367432e-001,
          2.54785344e-002, 1.56450227e-001, 2.55250543e-001,
          -2.18490623e-002, 9.38380696e-003, 3.19316946e-002,
          -4.10555035e-001, -1.91120848e-001, 5.15426397e-002,
          -2.71421261e-002, -7.37392530e-002, 2.52124250e-001,
          -1.35836273e-001, 2.98781265e-002, 1.07188612e-001,
          5.96501715e-002, -2.32780408e-002, 1.04343913e-001,
          2.85777181e-001, -1.53344467e-001, -3.10597718e-001,
          -2.64561146e-001, 1.00565024e-001, 1.32325739e-001,
          -9.63282213e-002, -9.97741595e-002, 2.07764104e-001,
          1.55405030e-001, 1.35544717e-001, -2.66670525e-001,
          -4.49736863e-002, -1.55103672e-002, 4.47619967e-002,
          -1.51458161e-003, 3.78839299e-002, 9.13177878e-002,
          -2.02610135e-001, -7.71220103e-002, 1.73951238e-001,
          -1.50622666e-001, 9.72066373e-002, 1.54460222e-001,
          -1.03309043e-001, 2.76197791e-001, 2.46465400e-001,
          -3.07833292e-002, -3.05582359e-002, 1.17183484e-001,
          -3.48437787e-003, 5.51405698e-002, -4.37177019e-003,
          -2.08027199e-001, -6.40087351e-002, 1.06471680e-001,
          -5.53234033e-002, -2.87821561e-001, -2.58026481e-001,
          1.23654399e-002, -1.33042216e-001, -9.81813595e-002,
          8.47152323e-002, -1.28121138e-001, -1.98768992e-002,
          -4.26131226e-002, -6.64279312e-002, -2.94766217e-001,
          1.80173561e-001, -2.12445155e-001, 1.36881396e-001,
          -1.29195228e-001, 1.21132150e-001, -1.07266396e-001,
          -6.78911656e-002, -6.86264858e-002, -2.04413429e-001,
          1.04372434e-001, 4.44760844e-002, -3.29951048e-001,
          -7.00862482e-002, 4.10706513e-002, 3.63471285e-002,
          3.75589095e-002, 8.02348703e-002, -1.11205541e-001,
          -8.18509981e-002, 1.93379804e-001, -3.11366588e-001,
          -5.21492898e-001, -4.88131374e-001, -1.58814013e-001,
          2.91122973e-001, -6.60488531e-002, -4.19510216e-001,
          -9.02258754e-002, 1.58789799e-001, -1.53064236e-001,
          -2.13920072e-001, -1.61757961e-001, 1.71580538e-001,
          1.87671363e-001, -2.84178138e-001, -4.13930476e-001,
          -2.92542338e-001, 4.28571254e-001, 3.53562027e-001,
          -2.32454002e-001, -3.53077203e-001, -1.46998107e-001,
          1.82696253e-001, 1.31357044e-001, -1.68478549e-001,
          9.72233266e-002, 2.02611089e-001, -1.44195601e-001,
          -1.68249495e-002, -2.60308176e-001, 4.55460772e-002,
          -2.10183248e-001, -2.60809422e-001, -2.81199723e-001,
          -1.68393794e-002, 4.23234195e-001, 7.38417953e-002,
          2.04292029e-001, 1.42312542e-001, 1.41570747e-001,
          -3.17970723e-001, -2.22103372e-001, 1.27713799e-001,
          2.37098932e-002, 4.26601797e-001, 1.20983668e-001,
          1.97179064e-001, -4.86387044e-001, -8.62800851e-002,
          -1.18825786e-001, -2.86448777e-001, 5.15134558e-002,
          -1.34013876e-001, 3.03567886e-001, 3.54291558e-001,
          4.66760732e-002, 1.17909256e-002, -1.33724511e-001,
          8.33630487e-002, 1.59490705e-001, 3.03928375e-001,
          9.52974483e-002, 3.15119892e-001, -8.18222016e-002,
          -9.83961895e-002, -5.41617095e-001, -4.33951557e-001,
          -2.20364615e-001, 1.28439605e-001, 3.92267518e-002,
          -2.22011387e-001, 6.07271865e-002, 5.12317829e-002,
          -6.83900714e-002, 4.84785484e-003, 3.84434789e-001,
          1.98608533e-001, -1.30752876e-001, -2.16196924e-002,
          6.05153628e-002, 2.47921064e-001, -5.54779023e-002,
          2.82990724e-001, 1.33148402e-001, -4.08911295e-002,
          2.86160707e-001, 1.43223554e-001, 2.03524884e-002,
          -1.96209252e-001, 2.00724050e-001, -1.62320554e-001,
          -6.18954115e-002, 5.14481142e-002, -3.25297803e-001,
          -6.37619272e-002, -3.76627035e-002, 3.22260290e-001,
          3.46967012e-001, -1.79930285e-001, -1.79815754e-001,
          8.22850391e-002, -2.36343890e-001, -2.84181163e-003,
          -3.67552370e-001, 1.81665018e-001, 2.51207024e-001,
          5.78035302e-002, -5.70678636e-002, 3.91062051e-002,
          2.58683830e-001, 1.74003616e-001, 3.81805450e-001,
          -8.30733553e-002, -3.05314977e-002, -1.94903925e-001,
          -1.76543340e-001, 1.12203799e-001, 7.75689185e-002,
          5.97723871e-002, -3.78866345e-002, 3.47135782e-001,
          -1.38597816e-001, 1.13615900e-001, -4.49215295e-003,
          -1.77168593e-001, 2.49958709e-001, 6.09345287e-002,
          1.78252533e-001, 3.91333550e-002, 4.50761952e-002,
          3.45366299e-002, -2.56998479e-001, -1.37423664e-001,
          6.57921210e-002, 1.50902778e-001, -3.70821059e-002,
          -2.12437347e-001, -8.00912306e-002, 1.16027713e-001,
          -6.75498545e-002, 5.86866625e-002, 1.21885508e-001,
          7.42749916e-003, 9.00369883e-002, -9.17237718e-003,
          -7.91909918e-002, 2.26293087e-001, 3.75091165e-001,
          -4.00652774e-002, 8.94580409e-002, -2.34989166e-001,
          -8.76115784e-002, -1.24906853e-001, -2.43584737e-001,
          -1.61843255e-001, 6.48281574e-002, 1.01571925e-001,
          -7.74113908e-002, -2.14000419e-001, 1.61565974e-001,
          -2.79580414e-001, -3.63562822e-001, -4.43901159e-002,
          -3.03990114e-002, 1.62449494e-001, -5.98190613e-002,
          1.74117699e-001, 3.19795042e-001, 8.65372419e-002,
          1.54719576e-001, 2.05263540e-001, 3.41809951e-002,
          -5.56111801e-003, -7.65233673e-003, 1.15658864e-001,
          1.29460245e-001, 1.23664550e-001, -1.70796826e-001,
          -1.50805235e-001, -5.54219447e-003, 2.88315386e-001,
          9.57583487e-002, 2.20592588e-001, -2.62171552e-002,
          -1.35055363e-001, -2.05634639e-001, 1.07072286e-001,
          -3.64891052e-001, 6.66870549e-002, 2.31898874e-001,
          -3.46625992e-003, 4.52249609e-002, -1.96235538e-001,
          -1.00463495e-001, -2.05341980e-001, -8.44747573e-002,
          -3.98675054e-002, -1.99187249e-002, -5.68658598e-002,
          -1.16536319e-001, -2.30483383e-001, -7.63898864e-002,
          -9.57576632e-002, -4.46358882e-002, -1.25399128e-001,
          -1.68018695e-002, 9.62693170e-002, 4.67798561e-001,
          2.05635652e-001, 5.25133461e-002, 1.99076012e-001,
          -2.34706193e-001, 3.15872505e-002, -3.35863560e-001,
          -1.64068490e-002, 3.18393171e-001, -8.52750242e-002,
          2.08730564e-001, 2.51571238e-001, -3.74069273e-001,
          1.16613418e-001, -1.68146327e-001, 5.04794568e-002,
          2.67939240e-001, 1.06860861e-001, -3.41396123e-001,
          -5.58972592e-003, 2.62092561e-001, -5.70352860e-002,
          8.22980404e-002, 1.22582003e-001, -1.97260901e-001,
          -7.82779381e-002, -3.33325029e-003, -2.53101945e-001,
          5.33721745e-002, 1.12190358e-002, -1.85035273e-001,
          -2.73822304e-002, -2.80553758e-001, -1.41534477e-001,
          3.34447950e-001, 5.73598295e-002, -2.91960120e-001,
          1.18375607e-001, -1.94010347e-001, -1.64112374e-001,
          -2.52689987e-001, -6.02418035e-002, -1.85751796e-001,
          1.11902647e-001, -1.79479271e-001, -2.08430171e-001,
          3.06574646e-002, 9.39626098e-002, 6.96541071e-002,
          -3.39778736e-002, -2.00191662e-001, -3.67105991e-001,
          5.60945235e-002, -1.68269247e-001, -2.86287546e-001,
          2.12023556e-002, -1.24157980e-001, 1.15276985e-001,
          -1.93233758e-001, -3.36290002e-001, -2.93488443e-001,
          3.40248734e-001, 4.19089556e-001, -3.11549902e-001,
          -1.60114672e-002, 1.90798849e-001, -5.54477870e-002,
          -2.21808165e-001, -1.12974778e-001, -2.44943965e-002,
          1.97036028e-001, -1.84561446e-001, -2.84002244e-001,
          1.01341223e-002, 5.56907281e-002, 7.43752941e-002,
          -7.54424930e-002, -1.07494317e-001, -2.95786262e-001,
          6.20241202e-002, 2.27815047e-001, -2.80382603e-001,
          3.38490635e-001, 3.50489259e-001, 2.60043919e-001,
          2.75453448e-001, -7.47281015e-001, 9.50348526e-002,
          1.33865625e-001, 3.14840168e-001, -8.79139155e-002,
          2.50955913e-002, -8.72011259e-002, -1.93543881e-001,
          2.54824251e-001, 2.06521526e-001, 3.91456813e-001,
          7.28891268e-002, 1.72434121e-001, 1.01211295e-001,
          4.45261091e-001, 3.11537564e-001, -1.27636343e-001,
          -4.33742963e-002, -4.33837295e-001, 1.02066942e-001,
          3.07921380e-001, 1.87092125e-001, 5.91289550e-002,
          3.29130262e-001, 1.48115456e-001, -1.61187619e-001,
          1.55054510e-001, 1.23876862e-001, -2.23981053e-001,
          -6.31567016e-002, 1.26092419e-001, 2.79810503e-002,
          -2.16334522e-001, 1.48362890e-001, -1.43482745e-001,
          4.77360040e-001, -3.01526457e-001, 4.04375643e-001,
          2.39219502e-001, -1.49134636e-001, -1.19926773e-001,
          2.27101054e-002, 2.38541886e-001, 9.67068002e-002,
          1.01080276e-001, -3.31521511e-001, 3.28413576e-001,
          2.60899454e-001, -7.91244134e-002, 1.56754717e-001,
          5.01042157e-002, 4.44272272e-002, -2.24298671e-001,
          6.20284855e-001, -2.61308581e-001, 1.83054671e-001,
          -1.30306065e-001, 2.64471024e-001, 3.77635099e-002,
          -8.48827884e-002, 2.72026181e-001, -7.02718049e-002,
          1.32114753e-001, 1.88768223e-001, -9.12549645e-002,
          -1.18087292e-001, -1.91562772e-002, -5.59145883e-002,
          -3.91338719e-004, 1.60320431e-001, 2.65204310e-001,
          1.17061161e-001, -3.39023203e-001, 1.07644752e-001,
          -1.06252484e-001, -1.79430917e-002, -5.33478819e-002,
          -2.57993788e-002, 8.88512656e-002, -1.66193858e-001,
          8.59105960e-002, -3.77498567e-001, 2.29229540e-001,
          1.84787273e-001, -1.51509926e-001, -1.00405455e-001,
          -4.55715299e-001, 1.35337278e-001, -3.04841306e-002,
          -1.81247629e-002, 5.48968986e-002, -9.24826637e-002,
          1.82230204e-001, 9.22725499e-002, -6.17941730e-002,
          -3.33788633e-001, -1.54602498e-001, -1.22714683e-001,
          5.13507463e-002, -2.36417666e-001, -1.51228800e-001,
          1.38093948e-001, 1.12647109e-001, -1.20152004e-001,
          -7.59336501e-002, 1.00624576e-001, -3.75472784e-001,
          7.21580014e-002, -2.17894748e-001, 4.84938845e-002,
          1.60214171e-001, 2.45968014e-001, -3.61729935e-002,
          -3.98874909e-001, -1.99705452e-001, -3.47524375e-001,
          9.58154276e-002, 1.34789065e-001, -1.61005571e-001,
          -2.78689086e-001, 2.72030413e-001, -2.84908768e-002,
          -5.33905067e-003, 2.16116115e-001, -2.44146988e-001,
          6.31464720e-002, 6.11856841e-002, -2.23208919e-001,
          -6.68159276e-002, 1.97012573e-001, 4.03182395e-002,
          5.12438687e-003, -1.88103124e-001, -1.36339488e-002,
          1.04049899e-001, 1.05146766e-002, -4.63199466e-002,
          -1.27809405e-001, 2.43001014e-001, -5.38980588e-003,
          -1.07678592e-001, -1.90978393e-001, -1.95069209e-001,
          4.88934759e-003, -2.42075667e-001, 1.42099991e-001,
          -1.11280099e-001, 8.43492523e-002, 5.58554083e-002,
          -3.47191393e-002, -7.07143247e-002, -6.30396903e-002,
          -2.08499148e-001, 1.53810292e-001, -1.02653198e-001,
          -1.46678150e-001, 1.96176097e-002, 6.09992556e-002,
          1.96600422e-001, -7.67317638e-002, -1.72046855e-001,
          7.27236196e-002, -2.81550258e-001, 5.22554182e-002,
          1.65306479e-001, 1.90577224e-001, 6.73821894e-003,
          8.59149024e-002, -1.29675850e-001, -1.61455616e-001,
          -2.12155849e-001, 3.78755778e-001, -1.11104056e-001,
          -1.31101742e-001, 1.11450572e-002, -2.96611905e-001,
          -4.52913307e-002, 8.65173526e-003, 1.19737320e-001,
          1.53804332e-001, -5.88841736e-001, -1.31560251e-001,
          3.55816096e-001, 1.08414322e-001, -4.17876765e-002,
          1.01697087e-001, -2.86840469e-001, 1.14359073e-001,
          2.75656015e-001, 8.29372462e-003, 2.40152642e-001,
          3.94683957e-001, -2.26600636e-002, -2.91664928e-001,
          1.50129397e-003, -1.86375141e-001, -1.07638717e-001,
          1.51281163e-001, -2.84154266e-001, -8.62259567e-002,
          1.14205584e-001, 1.47981822e-001, 8.28619972e-002,
          3.06714714e-001, -1.65836841e-001, 1.51041150e-001,
          3.65440339e-001, 1.37907803e-001, 9.81758907e-002,
          2.22043753e-001, 1.54224159e-002, 3.18369329e-001,
          -2.10383981e-001, 1.91313893e-001, -5.93731031e-002,
          1.32229120e-001, -2.18260184e-001, 1.81268603e-001,
          2.52248704e-001, -2.92663593e-002, -3.48265767e-001,
          2.67250329e-001, 1.46346420e-001, -1.75797641e-001,
          1.37752324e-001, -9.13358703e-002, 2.44687721e-001,
          2.66598523e-001, 4.17314917e-001, -3.83245037e-003,
          9.61247534e-002, -8.26014578e-002, -1.83299035e-002,
          3.68616909e-001, -1.57707389e-002, 1.56036234e-002,
          3.03282499e-001, 4.50767949e-002, 1.42351195e-001,
          3.35842103e-001, 6.00571215e-001, 1.42717004e-001,
          2.13424444e-001, -9.92112160e-002, -5.21995537e-002,
          2.89126426e-001, 5.52598014e-002, 1.80119693e-001,
          2.34265074e-001, 3.16390544e-001, -8.66784751e-002,
          -1.21399112e-001, -3.71805400e-001, 6.16216697e-002,
          4.24950182e-001, 2.20348880e-001, -1.11440448e-002,
          -2.59644482e-002, 5.18226698e-002, -5.09550981e-002,
          -6.27241507e-002, 1.58443347e-001, 6.27437457e-002,
          -8.26471671e-002, -1.97611712e-002, -2.13499188e-001,
          -4.20863219e-002, -9.32032987e-002, -7.00495765e-002,
          -3.66218358e-001, -2.22600996e-001, -3.53557914e-001,
          2.54305601e-001, 3.76175106e-001, -1.86360806e-001,
          2.79892266e-001, -8.50048587e-002, -8.66521224e-002,
          1.30405590e-001, -1.78178370e-001, -9.81605984e-003,
          1.83457121e-001, -3.80136073e-001, -2.27436170e-001,
          -1.08136095e-001, 1.16744347e-001, -4.93887067e-002,
          3.00464481e-001, 2.84596950e-001, 5.91386139e-001,
          -1.06847845e-002, -4.19853330e-002, 9.67084840e-002,
          6.20448664e-002, -1.56902254e-001, -2.57511437e-001,
          1.93308026e-001, 1.48236156e-001, -1.30358279e-001,
          -1.76866263e-001, -5.07125929e-002, 1.02246642e-001,
          7.02082412e-003, 1.56087860e-001, 4.42355797e-002,
          2.18300477e-001, 1.67907458e-002, 1.97490752e-002,
          -1.75935313e-001, -1.64731801e-001, 1.20856306e-002,
          8.79911520e-003, -4.10670228e-002, -2.37085283e-001,
          4.02673557e-002, -2.04187278e-002, -1.24832235e-001,
          -3.57559860e-001, -1.61271259e-001, -3.23382989e-002,
          -5.90740889e-002, -9.75821633e-003, -3.37716520e-001,
          1.98426127e-001, -3.42550099e-001, -9.93028749e-004,
          2.05990374e-001, 6.38642535e-002, 5.41772619e-002,
          -6.70335665e-002, 1.42477915e-001, -1.52946025e-001,
          2.58199513e-001, -1.10140398e-001, -9.78777483e-002,
          9.13561434e-002, -2.49093436e-002, -3.73426884e-001,
          2.69045234e-002, 2.50018299e-001, -1.01566471e-001,
          1.51011115e-002, -2.62987882e-001, -1.93826139e-001,
          -3.20184715e-002, -3.08143884e-001, 2.67090965e-002,
          -3.67900506e-002, 2.70661235e-001, 2.00562656e-001,
          -8.12144876e-002, -5.42405881e-002, 2.38369629e-002,
          9.26311016e-002, -3.62603188e-001, -2.83485711e-001,
          3.38878334e-001, 9.87659097e-002, -3.86832207e-001,
          -5.46776950e-002, 2.67627269e-001, 1.12824410e-001,
          1.91458836e-002, 1.76167414e-001, 7.33361617e-002,
          2.49933481e-001, 9.94493961e-002, 2.39356421e-002,
          1.61907077e-001, 4.06234078e-002, 2.89058328e-001,
          2.58172341e-002, 2.20823154e-001, 1.09553739e-001,
          1.66269675e-001, 6.22703694e-002, -2.79446155e-001,
          -3.49359572e-001, 5.51832048e-003, 6.79205060e-002,
          8.11434239e-002, -1.66080236e-001, 2.71022052e-001,
          4.13961530e-001, 1.44761622e-001, -1.11149304e-001,
          -4.04885300e-002, 1.94207340e-001, -2.08004881e-002,
          8.78478885e-002, 1.54919833e-001, -1.10273369e-001,
          -1.40000030e-001, 1.10427365e-001, -9.25607458e-002,
          -1.63008943e-001, -5.80451488e-002, -1.07487448e-001,
          -2.86459853e-003, 7.02521428e-002, -2.76639223e-001,
          6.01534080e-003, -7.28486106e-002, 1.50438681e-001,
          2.48109013e-001, -2.75400653e-002, -1.64576828e-001,
          -3.73496786e-002, -1.03537671e-001, -5.51926136e-001,
          7.37988800e-002, 1.53316543e-001, 1.68172829e-002,
          2.54965663e-001, -2.17874795e-001, -2.69914001e-001,
          1.80359900e-001, 1.56751022e-001, -5.57304740e-001,
          -5.21248346e-003, 1.61223158e-001, 2.83829495e-003,
          1.05179194e-002, -3.47696453e-001, 3.78817730e-002,
          1.63660347e-001, 2.35758707e-001, -4.03278738e-001,
          -9.29784998e-002, -1.48385474e-002, -1.22954786e-001,
          -5.09327874e-002, -1.92741957e-002, -7.60070905e-002,
          1.80097967e-002, -1.00190908e-001, -3.29212993e-001,
          1.03770837e-001, -1.23057570e-002, -3.73866290e-001,
          9.39956028e-003, 2.25303671e-003, -1.13017969e-002,
          1.60367116e-001, 7.14949742e-002, 1.13491043e-002,
          -5.73568605e-002, -3.44243124e-002, -1.12033938e-003,
          -2.22372934e-001, -1.08894713e-001, 1.37921035e-001,
          2.11970165e-001, 4.28920835e-002, -1.92887664e-001,
          7.86229894e-002, 2.01642662e-001, -2.83807367e-001,
          -8.83036479e-002, 5.45836873e-002, -5.99689828e-003,
          -1.23927273e-001, -1.60899177e-001, -7.42546096e-002,
          -1.43624797e-001, 2.44943108e-002, 7.07442239e-002,
          -2.20485970e-001, -2.55452078e-002, 6.79665282e-002,
          2.12007269e-001, -1.86637357e-001, -1.25785962e-001,
          -2.35637426e-002, 5.16650937e-002, -1.80305123e-001,
          -3.56588066e-001, 1.79696735e-002, 1.85396478e-001,
          4.05748308e-001, 1.72627106e-001, 1.20508477e-001,
          -2.04939563e-002, 1.73778206e-001, -2.59994268e-002,
          -2.24265411e-001, 3.88311557e-002, 2.63327241e-001,
          9.83266383e-002, -6.75662935e-001, -2.32694134e-001,
          1.37873709e-001, 1.92822546e-001, 4.58240092e-001,
          1.16467318e-002, 2.73758590e-001, -6.74566925e-002,
          3.90132427e-001, -1.63641479e-002, -4.72536795e-002,
          -1.42373070e-001, -1.90306619e-001, 1.53582484e-001,
          -1.15416728e-001, -4.27562028e-001, -5.31646252e-001,
          -2.25233734e-001, -4.00513917e-001, -1.33841718e-002,
          -1.09109208e-001, -1.19221911e-001, -5.83122410e-002,
          -2.13453323e-001, -1.01432055e-001, 1.35589868e-001,
          -1.47996750e-002, -3.55719060e-001, -4.38502550e-001,
          -2.61330217e-001, -1.70429870e-001, 1.74373686e-001,
          2.91272476e-002, -2.60215644e-002, -6.08718842e-002,
          -3.55021536e-001, -2.27840871e-001, -2.55684238e-002,
          2.40403078e-002, 1.53129578e-001, 7.54493400e-002,
          2.06293106e-001, -4.40993197e-002, -2.95183063e-001,
          -3.64507526e-001, -2.83729047e-001, -2.78761476e-001,
          4.41629328e-002, 3.43071133e-001, -9.76416767e-002,
          1.01670049e-001, -1.24854527e-001, 5.69226816e-002,
          1.27709610e-002, 4.71848920e-002, -4.57501948e-001,
          6.76116673e-003, -1.72293782e-002, -8.04123059e-002,
          1.04928695e-001, -3.74007642e-001, -8.47845152e-002,
          -5.16240411e-002, -8.44786391e-002, -2.37881422e-001,
          4.90281777e-003, 4.16731358e-001, -1.95338383e-001,
          1.37261093e-001, 1.07595026e-001, 3.33530903e-002,
          -2.38257110e-001, -2.83578604e-001, -2.04900861e-001,
          -1.59271121e-001, 1.87744528e-001, 2.38751531e-001,
          6.27357364e-001, 4.12111282e-002, -2.08854526e-002,
          2.31098250e-001, -2.57629412e-003, -5.17042242e-002,
          -2.74292640e-002, 8.59109014e-002, 7.05753872e-003,
          -2.23508015e-001, -3.13946933e-001, -2.23746881e-001,
          -5.40850163e-002, -5.55864871e-002, -1.81975022e-001,
          -1.75720118e-002, -2.34748945e-001, -3.01172119e-002,
          -1.10852323e-001, -1.44121259e-001, -1.26669571e-001,
          -5.10724112e-002, -1.90764278e-001, -2.20285326e-001,
          -3.64247590e-001, -5.08363284e-002, -1.93154305e-001,
          -1.98279947e-001, -1.82903290e-001, -3.29298824e-002,
          1.35199070e-001, 1.25429541e-001, 5.04699349e-003,
          7.94907063e-002, -3.75885181e-002, 5.07206582e-002,
          -1.00794740e-001, 3.86433393e-001, 1.89506590e-001,
          2.21357673e-001, 1.98218152e-002, 1.34898469e-001,
          2.41224363e-001, 3.50904167e-002, -1.57985777e-001,
          2.53901985e-002, -2.41057336e-001, 1.05997719e-001,
          2.00049773e-001, -1.30045488e-001, 1.33661047e-001,
          2.25094929e-001, -1.09541379e-001, -2.31828347e-001,
          5.85504696e-002, -1.47074431e-001, 1.69807062e-001,
          -5.23945205e-002, -2.95332551e-001, -3.75529408e-001,
          -1.29554152e-001, -2.58660376e-001, -1.60745546e-001,
          -1.05241887e-001, -4.71810326e-002, 5.81584014e-002,
          1.87052995e-001, 1.02418944e-001, -1.75645612e-002,
          -1.85137436e-001, 3.78267467e-002, -3.11615169e-001,
          -2.68055469e-001, -1.15020573e-002, 2.70682573e-002,
          2.33426616e-001, -5.69771193e-002, -9.24078524e-002,
          3.49818259e-001, 4.47278582e-002, -2.15406716e-001,
          2.91880995e-001, -1.72291324e-001, 1.12868071e-001,
          1.58204064e-001, -9.32835862e-002, -1.16790049e-001,
          -7.24311732e-003, -3.37085187e-001, -2.70651430e-001,
          4.38060015e-001, -1.45327812e-002, 2.09943578e-001,
          4.31358010e-001, 3.42472404e-001, -8.33589733e-002,
          -1.15430787e-001, -1.55934662e-001, -5.33660889e-001,
          -5.17630935e-001, -2.50745326e-001, 4.40517738e-002,
          5.49240820e-002, 4.38105129e-002, -1.71790123e-001,
          3.16926301e-001, -1.24979667e-001, -2.71582305e-001,
          1.06873952e-001, 1.13886267e-001, 1.19299412e-001,
          2.01251760e-001, 1.32641733e-001, -3.01369233e-003,
          -2.33903542e-001, -1.25964746e-001, -2.29526564e-001,
          -1.10078909e-001, -2.42094621e-001, 1.10138141e-001,
          2.50250369e-001, 3.21245104e-001, -9.65564549e-002,
          -1.85925573e-001, -2.24527359e-001, -2.85043508e-001,
          -7.53008649e-002, 8.51158202e-002, -1.21674418e-001,
          1.33290365e-002, 1.84028029e-001, -8.51634666e-002,
          -1.81177467e-001, 2.13719066e-002, -1.12724304e-001,
          -2.44740233e-001, -3.42017353e-001, -7.99515098e-002,
          1.30621433e-001, -7.34279305e-002, -3.72971386e-001,
          2.21927792e-001, 8.53958800e-002, 5.06449044e-001,
          -1.68863609e-001, -1.97078392e-001, 4.64049494e-003,
          -2.87661646e-002, -2.09077764e-002, -6.53257594e-002,
          -4.11512583e-001, -3.54781628e-001, -4.09484833e-001,
          -3.21738273e-001, -1.16140746e-001, -1.73812032e-001,
          -2.04412895e-003, -2.10235924e-001, -1.53840601e-001,
          -1.65740356e-001, -2.17733502e-001, 1.86744973e-001,
          1.94232166e-002, -3.78294945e-001, -3.89086008e-001,
          2.61582732e-001, -3.23980264e-002, -6.68726638e-002,
          -2.88268179e-001, -2.69533217e-001, -2.22392201e-001,
          -5.08822441e-001, -5.58630526e-002, -1.73214823e-002,
          -3.80866110e-001, -1.91346735e-001, -1.46434559e-002,
          6.88170120e-002, 2.21387595e-001, -2.09924212e-004,
          -4.13441002e-001, -4.48594391e-001, -1.44060805e-001,
          -1.40723258e-001, -1.29658401e-001, 1.58406332e-001,
          -3.59111279e-001, 4.33996785e-003, 1.82902850e-002,
          -2.22770870e-001, 8.69300142e-002, -4.54930604e-001,
          -3.86831462e-001, -4.62813675e-002, -2.82495707e-001,
          -3.18368107e-001, -2.38021627e-001, -3.12349617e-001,
          -3.07781905e-001, -2.98765987e-001, -3.86882812e-001,
          -5.70066512e-001, -6.01765037e-001, -2.17589110e-001,
          2.18795329e-001, 2.95369983e-001, 6.25539482e-001,
          1.25110492e-001, -2.21312959e-002, -9.27056968e-002,
          2.30050445e-001, 3.90226871e-001, 6.98903054e-002,
          1.72278196e-001, 1.76792756e-001, 7.58765787e-002,
          -2.28611976e-001, -4.21787024e-001, -3.87883862e-003,
          -4.80499685e-001, -3.22750956e-001, -4.64737028e-001,
          -1.86721638e-001, -2.63783306e-001, -2.19432443e-001,
          -1.45303622e-001, 1.31345361e-001, 1.72357246e-001,
          -2.49098301e-001, -2.39856124e-001, -1.21697232e-001,
          -3.01249444e-001, -4.11693126e-001, -3.78890276e-001,
          -2.00672925e-001, -1.47380471e-001, -1.57289371e-001,
          -1.95328355e-001, -3.30612510e-001, 3.56281362e-002,
          1.13207757e-001, 1.57602012e-001, 7.97932595e-002,
          -8.26231670e-003, -3.64674218e-002, 1.26751631e-001,
          -3.65645617e-001, -8.57781470e-002, -1.80677935e-001,
          -3.31146568e-001, -1.90434337e-001, -3.19600880e-001,
          -1.04981944e-001, -3.39432091e-001, 1.51524907e-002,
          -3.14170234e-002, -1.72327012e-001, -1.43968344e-001,
          3.18561971e-001, -6.00047447e-002, -3.89134288e-001,
          -1.66902125e-001, 1.91516802e-001, -2.41338968e-001,
          -3.57022196e-001, 9.51440781e-002, 3.11076939e-001,
          3.04557741e-001, 2.85418510e-001, -3.05789839e-002,
          -9.39435065e-002, 2.16769099e-001, -4.47548091e-001,
          -3.20236862e-001, -2.84595817e-001, 7.64770899e-003,
          -1.95212051e-001, -6.80411831e-002, -3.28520298e-001,
          -4.39380743e-002, -2.15108082e-001, 2.90389746e-001,
          -2.10224643e-001, 2.03940913e-001, -6.67383224e-002,
          5.43613099e-002, 6.36492297e-002, 1.93060488e-001,
          1.26204535e-001, 5.03029525e-002, 3.51142115e-003,
          -3.19757044e-001, -4.50585365e-001, -2.51842380e-001,
          9.31591988e-002, 1.01752691e-001, 7.78699890e-002,
          9.77711380e-002, 1.28999874e-001, -1.78600296e-001,
          -6.06334843e-002, -1.16446733e-001, 3.64523716e-002,
          1.13847762e-001, 2.34100431e-001, -6.11552447e-002,
          3.42881382e-002, -2.07459182e-002, -1.29423708e-001,
          -3.58801991e-001, -2.05276802e-001, 1.69734120e-001,
          -4.56171125e-001, -3.89854312e-001, 2.24710312e-002,
          3.66778336e-002, -1.42071277e-001, 2.01366469e-001,
          2.08784595e-001, -9.07409117e-002, -4.39870864e-001,
          -3.04239035e-001, 3.70278150e-001, 2.31536061e-001,
          3.58488768e-001, -4.39326875e-002, 5.50324135e-002,
          -4.81537245e-002, 3.60163637e-002, -2.58993983e-001,
          -4.31068316e-002, -7.53626972e-002, -3.43251705e-001,
          -7.04485416e-001, -6.91127107e-002, -1.23244561e-001,
          -3.00094008e-001, -3.56984645e-001, -1.80492461e-001,
          8.76450390e-002, 2.26602182e-001, -3.46692465e-002,
          -1.63140908e-001, -1.50200389e-002, 8.47746506e-002,
          9.73035619e-002, -3.13453197e-001, -1.35113284e-001,
          -5.44792116e-001, -9.99146551e-002, -1.29688978e-001,
          -3.27110797e-001, -3.45226705e-001, -1.19672418e-002,
          3.29394221e-001, 1.48861453e-001, -7.55850852e-001,
          1.74261967e-003, 1.40545121e-003, 2.49836221e-002,
          -3.10249832e-002, -8.23410526e-002, 1.46825105e-001,
          4.38561529e-001, 1.13029853e-001, -3.70734125e-001,
          -2.16530487e-001, 8.00654106e-003, -2.18411937e-001,
          -4.57823515e-001, -3.45116466e-001, -2.25345016e-001,
          4.60944101e-002, -6.69121802e-001, -3.82624537e-001,
          6.21188432e-002, 8.23643357e-002, -1.39726266e-001,
          -2.32708335e-001, 4.69564907e-002, 1.40491620e-001,
          -4.57517691e-002, -2.88447171e-001, -4.43366259e-001,
          -6.86490476e-001, -4.11945015e-001, -2.59138793e-001,
          -3.79063904e-001, -2.10739151e-001, 9.93268490e-002,
          2.81889915e-001, -2.74191480e-002, -3.54135215e-001,
          -1.19355671e-001, -1.35619894e-001, -1.90317795e-001,
          -1.02449238e-001, -1.58715039e-001, 1.12808356e-002,
          2.88955837e-001, 3.40521991e-001, -3.52092460e-002,
          -6.24629080e-001, -4.87922579e-001, -5.15702486e-001,
          -6.74980044e-001, -2.78646171e-001, -2.53221184e-001,
          -8.26359332e-001, -5.47752559e-001, -6.01906776e-001,
          -1.56329691e-001, -4.02978510e-001, -5.01828194e-001,
          -8.12209070e-001, -3.62457633e-001, 1.37840346e-001,
          -9.19012278e-002, -1.18853651e-001, 3.89015041e-002,
          -3.74599010e-001, -2.65393734e-001, -5.34278393e-001,
          -3.12612534e-001, -3.39307219e-001, -4.45264488e-001,
          -1.00288950e-002, -2.12748796e-001, -1.82539284e-001,
          8.36070925e-002, -4.29752208e-002, -1.62071019e-001,
          1.64160773e-001, -9.47204083e-002, 3.62477273e-001,
          3.25689495e-001, 3.32696624e-002, 1.62658736e-001 ]
   decision_functions:
      -
         sv_count: 1
         rho: -1.4261130315453810e+001
         alpha: [ 1. ]
         index: [ 0 ]
