%YAML:1.0
my_svm: !!opencv-ml-svm
   svm_type: C_SVC
   kernel: { type:LINEAR }
   C: 1.0000000000000001e-001
   term_criteria: { epsilon:1.1920928955078125e-007, iterations:1000 }
   var_all: 1764
   var_count: 1764
   class_count: 2
   class_labels: !!opencv-matrix
      rows: 1
      cols: 2
      dt: i
      data: [ -1, 1 ]
   sv_total: 1
   support_vectors:
      - [ 1.23874536e-002, 9.71812755e-002, -4.99789417e-002,
          -5.25327213e-003, -7.88916424e-002, -2.45972108e-002,
          7.58790318e-003, -6.31986186e-002, -4.91296053e-002,
          -1.44356802e-001, -2.34376162e-001, -8.66759792e-002,
          -1.47428766e-001, -3.24672878e-001, -1.18950315e-001,
          2.25597527e-003, -6.63942248e-002, -4.50837752e-003,
          -1.10300131e-001, 2.12893873e-001, -2.25887150e-001,
          -1.79531723e-001, 8.63786414e-002, 1.70364641e-002,
          -8.71541053e-002, -9.19781402e-002, -2.95919061e-001,
          -1.89929768e-001, -3.76643181e-001, -2.84011692e-001,
          -2.29030609e-001, -7.97964409e-002, -2.45521277e-001,
          -3.10100615e-001, -8.27990249e-002, -8.13295767e-002,
          -9.00973380e-002, 2.00297609e-001, 2.57191509e-001,
          -7.12617934e-002, -3.24104071e-001, -1.08597092e-001,
          1.91332221e-001, 1.39589727e-001, -1.03366293e-001,
          -5.25500253e-002, 2.49377131e-001, -2.17867240e-001,
          -2.11470857e-001, -2.69053966e-001, -8.22449997e-002,
          2.33264744e-001, 1.02709860e-001, -1.57737523e-001,
          -9.91191491e-002, -1.42222315e-001, -1.77308559e-001,
          -2.34189287e-001, -8.40517357e-002, -1.40523791e-001,
          -7.60802254e-002, 7.45715397e-007, -9.51174572e-002,
          -6.32003248e-002, -1.39657602e-001, -4.39979106e-001,
          -4.26609576e-001, -6.63769320e-002, -4.11305651e-002,
          -1.97435841e-001, -3.35099488e-001, -2.34713241e-001,
          -1.24295473e-001, 2.25412697e-001, -2.45636731e-001,
          1.52418967e-002, 1.90709218e-001, 1.24364518e-001,
          2.50576705e-001, 5.56765161e-002, -1.90725148e-001,
          -3.40838134e-001, -3.03903576e-002, -3.41015548e-001,
          -4.09072340e-002, 6.55783340e-002, -2.11379188e-003,
          6.08969741e-002, -1.95705164e-002, -4.05947238e-001,
          2.03580465e-002, 2.97684252e-001, -1.21005885e-001,
          -2.31498033e-001, 3.67302686e-001, 1.62867159e-001,
          4.43382375e-002, -1.00762315e-001, -1.28310233e-001,
          1.12283677e-001, -5.09828925e-002, -1.99727014e-001,
          -4.07996297e-001, 1.28854424e-001, 3.68319824e-002,
          7.19245449e-002, -9.66922101e-003, 5.69196418e-002,
          -2.74648070e-001, 7.20093772e-002, -7.58724287e-002,
          3.99837434e-001, 1.87992364e-001, 2.75272597e-002,
          -2.16370877e-002, 1.22720189e-001, -2.45162979e-001,
          -4.04092044e-001, -3.16755682e-001, -2.18017370e-001,
          1.81916997e-001, 1.13928996e-004, 9.13822427e-002,
          -1.32205218e-001, 7.03288382e-003, -2.01968640e-001,
          2.31473133e-001, 2.75784940e-001, -3.20790261e-002,
          5.53931296e-002, 1.60244972e-001, 3.03180255e-002,
          5.68127930e-002, 1.94604784e-001, 9.86822620e-002,
          6.00249916e-002, -1.77644610e-001, -1.61023021e-001,
          -6.11369573e-002, -3.79995778e-002, 1.23932641e-002,
          -2.62206141e-002, 6.36895979e-003, 1.93284482e-001,
          -2.53978491e-001, -6.09216541e-002, -1.08358257e-001,
          4.10988182e-002, -1.04151882e-001, -2.62620062e-001,
          -1.34586006e-001, -3.61989178e-002, -1.51245460e-001,
          -4.55976814e-001, -1.14472061e-001, 1.12804584e-001,
          4.82907705e-002, -5.62315546e-002, -2.53826469e-001,
          -3.17137688e-002, 6.16177991e-002, -2.65292048e-001,
          1.04156271e-001, -1.64933234e-001, -1.41718104e-001,
          4.99913730e-002, -6.15866035e-002, -1.71033740e-001,
          -1.48004621e-001, 1.76408738e-002, 2.46720836e-001,
          -3.29398252e-002, -2.02056482e-001, -9.09178630e-002,
          4.79331091e-002, -1.34586662e-001, -2.66944081e-001,
          -1.04775414e-001, 1.42304376e-001, 1.18140712e-001,
          -4.98152971e-001, 6.71769455e-002, 2.51272649e-001,
          1.25436142e-001, -6.53724521e-002, -1.70074999e-001,
          -2.43379012e-001, -2.19398528e-001, -3.88190538e-001,
          -1.55250967e-001, 2.54920423e-001, 1.80410221e-001,
          1.14938818e-001, -3.21574435e-002, -6.08821735e-002,
          -2.33119771e-001, -2.68452674e-001, -1.93091288e-001,
          -1.30294517e-001, -1.07848778e-001, -3.32684033e-002,
          -2.29741856e-002, -2.41159856e-001, -4.38927323e-001,
          -1.43554509e-001, 1.18609063e-001, 7.88567811e-002,
          -1.86817259e-001, -2.72654444e-002, -4.03768979e-002,
          -5.97929843e-002, -1.63393751e-001, -2.34352037e-001,
          3.52720656e-002, 7.64750764e-002, 6.00475930e-002,
          8.51439536e-002, 1.41062915e-001, -1.78447068e-002,
          8.19601491e-002, 1.91865727e-001, 1.05047561e-001,
          -2.98128814e-001, -4.63138789e-001, -1.77638486e-001,
          5.78690529e-001, 3.09024572e-001, 2.53325939e-001,
          5.10395706e-001, 5.60563445e-001, 2.41205722e-001,
          8.44422430e-002, -2.69938409e-002, 4.16834623e-001,
          -5.46812832e-001, -3.85478467e-001, -3.82518321e-001,
          -1.40024200e-001, -2.99756020e-001, -3.65960687e-001,
          -3.47926289e-001, -4.58028585e-001, -4.56491143e-001,
          3.76582220e-002, 1.06540546e-002, 5.47654778e-002,
          1.85068086e-001, -1.31317541e-001, -6.93529844e-001,
          -5.70417345e-001, -3.92666608e-001, 4.21894565e-002,
          -1.07049271e-001, 2.70501047e-001, -1.51982620e-001,
          -1.20158337e-001, 1.49035649e-002, 1.43525705e-001,
          8.86733681e-002, 2.54096147e-002, -2.75965482e-001,
          -1.76759139e-002, -1.93877950e-001, -2.33724743e-001,
          8.28119591e-002, 9.83352065e-002, -1.20479159e-001,
          -1.27261087e-001, -5.39459251e-002, 2.76930425e-002,
          -1.66715488e-001, -2.04386458e-001, 4.91903387e-002,
          -1.56704828e-001, -5.65518029e-002, 1.41437650e-001,
          7.01978356e-002, 7.89621323e-002, -3.46638411e-001,
          -2.41812482e-001, -2.76583552e-001, -3.76624584e-001,
          -3.11455000e-002, -5.07690981e-002, -2.48672858e-001,
          -1.41459331e-001, -6.22027814e-002, -1.66562825e-001,
          -8.93837288e-002, -1.92155555e-001, -2.37386927e-001,
          -7.16832504e-002, 1.42865881e-001, 1.07827686e-001,
          1.32527471e-001, 1.87645763e-001, 1.80254728e-002,
          -1.72178354e-002, 3.50010544e-002, -2.36034796e-001,
          -2.09480554e-001, 6.38809800e-002, 6.43530264e-002,
          2.99952626e-002, -1.04910433e-001, -1.20996520e-001,
          -5.84608652e-002, -1.23249270e-001, -1.93668008e-001,
          4.66058478e-002, -5.99351786e-002, -8.71436521e-002,
          6.86619654e-002, 1.17738880e-001, 7.25849904e-003,
          -1.48830011e-001, -2.97483861e-001, -4.16317619e-002,
          -3.58534247e-001, -4.53883857e-002, -9.06892642e-002,
          -2.35739481e-002, -6.47013634e-002, -1.27108812e-001,
          8.94574225e-002, 4.66883957e-001, 2.50852674e-001,
          7.86935072e-003, 8.51518959e-002, 5.99062257e-002,
          4.32492383e-002, 1.13851158e-002, -8.61268789e-002,
          1.75320178e-001, 2.87641436e-001, 5.91556244e-002,
          -9.88436341e-002, -1.39476126e-002, 1.44810062e-002,
          5.39559349e-002, 7.56975934e-002, -7.42168128e-002,
          1.13028802e-001, 8.98566991e-002, 1.63424481e-002,
          -1.05794765e-001, 1.96259674e-002, -6.64955080e-002,
          7.95866400e-002, 9.32375478e-005, -1.39812380e-001,
          8.72449726e-002, -1.28768593e-001, 1.78833380e-002,
          -2.76095182e-001, 4.33257752e-004, 4.97692414e-002,
          7.11751804e-002, 9.51314494e-002, -1.03131533e-001,
          1.10926375e-001, 5.08778058e-002, -6.47618026e-002,
          -7.60210231e-002, -1.65437922e-001, -9.08086225e-002,
          2.96212863e-002, 4.38704081e-002, -8.47970024e-002,
          -9.19883400e-002, -2.91253272e-002, -1.22508265e-001,
          2.59911492e-002, -1.44043639e-001, -3.16772431e-001,
          -2.17947230e-001, -1.81951702e-001, 8.58235136e-002,
          8.03698674e-002, 9.66984499e-003, 2.56396807e-003,
          6.12550639e-002, 5.06319590e-002, 1.55474693e-001,
          3.32633592e-002, 8.13599154e-002, -4.29026969e-002,
          -1.41922355e-001, -6.81312904e-002, 3.12182344e-002,
          5.55949658e-002, 1.00243129e-002, 1.40024021e-001,
          -9.21872929e-002, 1.67652348e-003, 1.00533366e-001,
          -1.17294453e-001, -9.11685675e-002, -5.73612563e-002,
          1.10589981e-001, -1.50754556e-001, -1.77700534e-001,
          -1.51279718e-001, 1.09299421e-002, 1.12990895e-002,
          -1.44656584e-001, -4.01904546e-002, -5.40076615e-003,
          1.16603691e-002, -1.27465324e-002, -1.50353655e-001,
          -1.18453152e-001, -1.31844148e-001, -1.16797380e-001,
          -1.00721873e-001, 1.41180623e-002, 8.42328444e-002,
          -9.34217945e-002, -7.64902905e-002, 1.38738558e-001,
          -7.00253323e-002, -4.60156891e-003, 3.59861255e-002,
          3.24852727e-002, 2.61528194e-001, 2.19142467e-001,
          -2.09127925e-002, 8.75395685e-002, -1.32622300e-002,
          -2.59565394e-002, 8.75079036e-002, 5.60369194e-002,
          -1.60875857e-001, 6.91497102e-002, 3.55299935e-002,
          2.75498889e-002, -2.79442817e-001, -2.54979998e-001,
          -1.26378596e-001, -2.04803094e-001, -1.76944435e-001,
          -6.00759834e-002, -2.44215801e-001, -1.02500394e-001,
          5.80491461e-002, -9.45677534e-002, -1.72983512e-001,
          1.57206599e-002, -1.47970319e-001, -6.34510592e-002,
          7.30624935e-003, 3.31976451e-002, 1.94846038e-002,
          3.83249223e-002, -2.10214749e-001, -1.44900322e-001,
          1.27796531e-002, 2.01753471e-002, -3.53286043e-003,
          -1.20438106e-001, -5.26911020e-002, 9.03332084e-002,
          9.60159749e-002, -6.02294095e-002, -5.50155789e-002,
          2.35725264e-003, -6.60759062e-002, -8.67755339e-002,
          -3.58414769e-001, -4.00938809e-001, -2.16159374e-001,
          1.86514124e-001, 1.20440470e-002, -2.75472611e-001,
          1.13975452e-002, -1.67776063e-001, -2.38594323e-001,
          1.11167459e-002, -8.59933496e-002, -1.95611976e-002,
          1.00434296e-001, -3.18124861e-001, -5.90218663e-001,
          -2.27954462e-001, 6.19499944e-002, 1.77559674e-001,
          -2.68444031e-001, -2.41631165e-001, -1.16218947e-001,
          1.89317092e-001, 3.87648009e-002, -1.45344600e-001,
          5.40069165e-003, 7.50741875e-003, -1.23769864e-001,
          8.50789025e-002, -1.27799720e-001, -1.01629101e-001,
          -3.56508344e-002, -2.99576789e-001, -2.54759908e-001,
          1.05853267e-001, 3.06887716e-001, 8.99441987e-002,
          1.64996788e-001, -1.12816589e-002, 3.96174937e-002,
          -1.44724935e-001, -2.72000581e-001, 9.02018920e-002,
          6.69215694e-002, 1.84798777e-001, 1.30321421e-002,
          1.28036737e-001, -1.70260966e-001, -1.48695931e-001,
          5.76406866e-002, -1.25376403e-001, -6.70093484e-003,
          9.75619256e-002, 2.23996490e-001, 1.80294693e-001,
          -3.38393205e-004, -1.04930885e-001, -2.04333905e-002,
          -8.08354914e-002, 2.49452032e-002, 1.11817062e-001,
          1.26660362e-001, 1.22140110e-001, -1.66284535e-002,
          -1.35174841e-001, -3.08801711e-001, -2.38293648e-001,
          -2.03233406e-001, -6.03624210e-002, -3.93715315e-002,
          2.55397242e-002, 8.41055587e-002, 3.65361273e-002,
          -7.50037357e-002, 1.51362255e-001, 1.32520437e-001,
          2.06854060e-001, 1.01473555e-001, 6.51163533e-002,
          1.34118512e-001, 1.98166415e-001, -2.79613081e-002,
          1.35489795e-002, 5.08485734e-003, 5.40739149e-002,
          9.36837494e-002, -3.94877531e-002, -3.74208763e-002,
          -7.18505532e-002, 1.04533732e-001, -8.13237950e-002,
          -8.30031559e-002, -2.63218358e-002, -2.54742891e-001,
          -5.56333503e-003, 9.23769474e-002, 1.88434213e-001,
          2.00383008e-001, 9.81662497e-002, -3.77459638e-002,
          -3.28716915e-003, -1.95302933e-001, 9.90496874e-002,
          -9.22093913e-002, 3.35963406e-002, 2.98378393e-002,
          2.67399033e-003, 9.09942836e-002, 3.73417959e-002,
          1.02301039e-001, 6.79994151e-002, 2.12527394e-001,
          1.39943801e-003, -1.72768995e-001, -8.74316916e-002,
          -9.97724086e-002, 4.83653769e-002, 3.10436022e-002,
          5.57527654e-002, 1.11047961e-001, 2.78009385e-001,
          3.99596617e-002, -9.01552141e-002, 3.07913627e-002,
          1.25125134e-002, 1.64064422e-001, -6.38848692e-002,
          4.71420847e-002, -5.54205067e-002, 1.32361561e-001,
          -2.51208581e-002, -1.23455137e-001, 3.92524526e-003,
          4.26008925e-002, 3.70496623e-002, 7.61744156e-002,
          -1.73661366e-001, -4.93369401e-002, 1.17988713e-001,
          -8.11212659e-002, 6.68715462e-002, 5.24581503e-003,
          -6.84336806e-003, 4.21480983e-002, -4.50278595e-002,
          -3.70079800e-002, 1.05587453e-001, 8.67047235e-002,
          8.05361487e-004, -1.61001727e-001, -1.65594086e-001,
          -9.49221551e-002, -4.30899225e-002, -1.55768991e-001,
          -4.19352315e-002, 3.71422432e-002, -7.87441060e-002,
          -9.66309980e-002, -1.63509637e-001, -4.69776094e-002,
          -2.32835323e-001, -1.43983930e-001, -4.07929048e-002,
          -6.51850402e-002, 8.22478905e-002, -4.63715866e-002,
          -4.27502282e-002, -1.30817860e-001, -7.39274994e-002,
          -5.99226058e-002, 6.71265274e-002, -6.88049793e-002,
          -4.00895178e-002, 8.61079395e-002, 1.25724850e-002,
          -3.22105698e-002, 1.11172698e-001, -8.70580673e-002,
          -1.06503822e-001, 6.49112388e-002, 6.17810041e-002,
          -9.47925611e-004, 9.99751221e-003, -6.60621598e-002,
          -1.67563081e-001, -1.49082556e-001, 9.40896869e-002,
          -7.69920647e-002, -3.64843756e-002, -1.12754172e-002,
          5.20654358e-002, 2.33782176e-002, -2.34196577e-002,
          -1.22097127e-001, -1.44285187e-001, -3.04951947e-002,
          -5.08825034e-002, 2.45933086e-002, -8.43678415e-002,
          1.46130251e-003, -1.08020559e-001, -1.15245953e-001,
          -1.34709075e-001, 2.16054488e-002, -2.39987113e-002,
          4.82669435e-002, 8.18518624e-002, 6.39907196e-002,
          5.69544919e-002, -1.72076002e-002, -2.07177438e-002,
          -2.26870924e-001, 6.97826743e-002, -6.45695403e-002,
          -3.49770188e-002, 1.65092647e-001, -6.19803667e-002,
          1.00885414e-001, 1.37464121e-001, -1.26608506e-001,
          1.10814450e-002, -2.78146684e-001, 3.40837277e-002,
          6.48611709e-002, 5.66880032e-002, -1.18942134e-001,
          -7.09895790e-002, 1.16533741e-001, 8.31540022e-003,
          9.15943012e-002, -1.48384660e-001, -6.95813820e-002,
          4.23988290e-002, 6.07986795e-003, -1.61206365e-001,
          -1.46267628e-002, 7.10462108e-002, -1.10369623e-001,
          -5.26209287e-002, -7.34646767e-002, 8.35102946e-002,
          1.21255584e-001, 4.86825779e-002, -1.82126880e-001,
          -8.56081303e-003, -2.86070611e-002, 9.45306495e-002,
          -1.92466304e-001, -2.26357169e-002, -9.13713798e-002,
          2.18356431e-001, -8.51230789e-003, -1.58489034e-001,
          -1.07573435e-001, 4.41593155e-002, 4.58025075e-002,
          1.15863077e-001, -2.41792470e-001, -2.00895146e-001,
          7.93723390e-002, -1.77358370e-002, -2.20969051e-001,
          1.01361699e-001, -6.51675416e-003, -7.65897706e-002,
          -1.51493758e-001, -4.45511043e-001, -1.14264883e-001,
          1.88636005e-001, 2.31918454e-001, -1.02711402e-001,
          -1.06325939e-001, 6.03496358e-002, 1.42854676e-001,
          -8.28660727e-002, -3.96050476e-002, -1.15615554e-001,
          2.41724864e-001, -3.06223445e-002, -2.53758937e-001,
          -4.62873727e-002, 7.12000057e-002, 6.94528148e-002,
          -6.65077716e-002, -1.00957289e-001, -6.49493262e-002,
          1.26362830e-001, 4.51011620e-002, -1.57200024e-001,
          2.04003990e-001, 1.84557974e-001, 1.12884380e-001,
          1.34958699e-001, -4.70945954e-001, 2.50307709e-001,
          1.13104992e-001, 2.20032915e-001, 8.03376362e-002,
          1.20099694e-001, -8.47131833e-002, -1.18069567e-001,
          1.66052103e-001, -1.67825028e-001, 1.31577715e-001,
          5.61743835e-003, 1.72779158e-001, 1.41669214e-001,
          2.04589009e-001, 1.47480458e-001, -6.05163649e-002,
          1.65727869e-001, -2.15207398e-001, 3.86984646e-002,
          1.30144581e-001, 1.59704223e-001, 1.30686149e-001,
          1.49930343e-001, -4.23818305e-002, -7.48082325e-002,
          1.53718576e-001, 5.42782396e-002, -1.15758784e-001,
          -1.32593408e-001, 7.09564388e-002, 1.31603688e-001,
          -4.86662462e-002, 5.66676185e-002, -4.62926999e-002,
          3.02555293e-001, -1.50619313e-001, 1.79874748e-001,
          6.47007078e-002, 4.22880203e-002, -3.04965824e-002,
          3.03393193e-002, 2.22232975e-002, 1.53645054e-001,
          1.20012507e-001, -1.40875027e-001, 2.04227194e-001,
          1.85561135e-001, 2.63432525e-002, -1.47020062e-002,
          -2.76072752e-002, -1.21731227e-002, -1.66470274e-001,
          3.97176683e-001, 1.98348146e-002, 9.57572162e-002,
          -5.96962087e-002, 9.22007784e-002, 3.19940969e-002,
          -7.34819770e-002, -8.32393207e-003, -7.59369358e-002,
          1.15391918e-001, 1.01182528e-001, -4.06518988e-002,
          5.49968742e-002, 1.80758722e-002, -2.62104981e-002,
          -2.66312659e-002, -6.35161847e-002, 5.86665906e-002,
          -7.34880120e-002, -3.54829848e-001, 1.22494102e-001,
          5.32503128e-002, 8.09997842e-002, 2.71029063e-002,
          -5.23971813e-003, -2.36152373e-002, -6.20151013e-002,
          -2.11522076e-002, -1.57160416e-001, 3.18635814e-002,
          8.85141119e-002, 5.25374860e-002, 1.13935797e-002,
          -1.32416502e-001, 5.32130674e-002, -4.48285490e-002,
          4.71325079e-003, -1.64168611e-001, -3.20658572e-002,
          1.10972352e-001, 4.25196327e-002, -1.24432445e-002,
          -1.16066061e-001, 3.37902568e-002, 6.53590187e-002,
          2.66152248e-002, -5.93888164e-002, -6.37887493e-002,
          4.54613864e-002, 1.65468510e-002, 1.81589890e-002,
          -1.07944226e-002, 2.08237730e-002, -1.85376436e-001,
          -1.60056986e-002, -2.70550191e-001, -5.79466447e-002,
          2.73589771e-002, 7.60552809e-002, -7.57206455e-002,
          -1.61903352e-001, -1.65533707e-001, -2.06163779e-001,
          4.89154905e-002, -7.19484165e-002, -1.05299905e-001,
          -3.93678211e-002, 8.63553882e-002, -8.72215331e-002,
          3.60323600e-002, 3.22285853e-003, -1.55958265e-001,
          -1.01188280e-001, -7.53248706e-002, -1.73094168e-001,
          -3.76503356e-002, 8.36736560e-002, -7.55514437e-003,
          8.11280161e-002, -1.62935585e-001, -3.47745605e-002,
          -6.44927770e-002, 6.74021319e-002, 1.42217278e-002,
          1.89042017e-002, 1.60620764e-001, -7.41922334e-002,
          -5.67045063e-002, -1.55066848e-001, -1.16049901e-001,
          -2.22655479e-003, -2.32486129e-001, -8.39435402e-003,
          3.58006544e-002, 5.95895201e-002, -3.88112590e-002,
          -7.57166445e-002, -1.17418520e-001, -1.07602485e-001,
          -9.36028585e-002, -9.15340558e-002, 2.48265900e-002,
          -1.79278962e-002, 4.76496629e-002, -1.05166078e-001,
          1.47209749e-001, -7.79138207e-002, -9.53939110e-002,
          -7.20699318e-003, -1.04715250e-001, -2.02291869e-002,
          1.90637141e-001, 1.61520690e-001, 3.78204655e-004,
          2.66749840e-002, -6.21735901e-002, -1.93644855e-002,
          -6.00099303e-002, 1.08235851e-001, -2.60659168e-003,
          1.58433333e-001, 1.27181217e-001, -2.21791770e-002,
          -2.35780478e-002, -1.05651375e-002, -3.53256240e-003,
          1.08195566e-001, -2.23134711e-001, 1.92846209e-001,
          2.23255560e-001, 1.57269612e-001, -2.29797512e-002,
          2.27915309e-002, -1.62573576e-001, 8.61206055e-002,
          1.30771726e-001, -6.06722087e-002, 4.29243408e-002,
          2.55573541e-001, 6.95924042e-003, -1.63844541e-001,
          -1.16540566e-001, -1.59647629e-001, -1.77985877e-002,
          9.56959873e-002, -1.70082808e-001, 1.73234046e-001,
          2.05689579e-001, 1.33951917e-001, -4.24268208e-002,
          8.39553401e-002, -9.00167525e-002, 1.02165908e-001,
          1.33682743e-001, 6.42069206e-002, -3.25047225e-002,
          1.29449800e-001, -5.31819230e-003, -8.21760762e-003,
          -1.45645574e-001, 7.74537623e-002, 6.29755259e-002,
          9.77875069e-002, -2.01594308e-001, 3.46948020e-002,
          2.04817802e-001, -6.73805475e-002, -2.53952533e-001,
          2.14734390e-001, 1.42379135e-001, -7.54489526e-002,
          -1.17330449e-002, -1.36625230e-001, 1.02913663e-001,
          2.04524010e-001, 1.78351656e-001, 8.36707428e-002,
          1.44928142e-001, -2.85956487e-002, -4.67877127e-002,
          1.54373705e-001, -1.02493502e-002, -4.21014242e-003,
          1.55345976e-001, -5.66797443e-002, -8.46896842e-002,
          3.65830064e-001, 3.74528199e-001, 1.72474489e-001,
          7.32965395e-002, -6.75743073e-002, 1.33254364e-001,
          2.33943552e-001, 1.29326209e-001, 1.43919438e-001,
          1.13404892e-001, 8.09583589e-002, -8.52038413e-002,
          2.51168273e-002, -1.83848590e-001, -1.53830558e-001,
          2.00362220e-001, 2.08117083e-001, 1.69898406e-001,
          -5.18576102e-003, -3.87085639e-002, -1.60421044e-001,
          1.26768693e-001, 4.42219377e-002, -1.76836737e-003,
          -1.14207640e-001, -2.80059855e-002, -1.41702488e-001,
          -7.11914385e-003, -3.24182957e-002, -1.40880734e-001,
          -1.93852842e-001, -2.52378881e-001, -3.62191498e-001,
          1.57819986e-001, 2.05593288e-001, -1.14378938e-002,
          1.54400840e-001, -3.47078815e-002, 1.03651192e-002,
          8.61176476e-002, -3.11241169e-002, -8.44794661e-002,
          2.21967772e-002, -6.55401424e-002, -2.42532983e-001,
          3.60904448e-003, 1.05739176e-001, -5.88767976e-002,
          3.06801975e-001, 1.25217512e-001, 2.25314423e-001,
          -5.70406653e-002, 4.34889793e-002, 2.28466187e-002,
          -2.24983636e-002, -5.90858534e-002, -1.66786760e-001,
          3.13493818e-001, 4.32222560e-002, 4.95009050e-002,
          -2.61869095e-002, -2.94291731e-002, -1.10178195e-001,
          -1.08309686e-002, 1.79804698e-001, 7.75710121e-002,
          1.13090701e-001, 8.12237896e-003, -1.98160764e-002,
          -1.38466924e-001, -1.01282718e-002, -1.25290483e-001,
          -6.73314556e-003, 5.96390702e-002, -3.27530950e-002,
          1.08833984e-001, -4.34219018e-002, -4.13322710e-002,
          -3.80556956e-002, -8.74862149e-002, -7.20170736e-002,
          -3.92775796e-002, 7.61560053e-002, -9.97949839e-002,
          2.26813063e-001, -1.86626107e-001, 2.18029451e-002,
          1.45518959e-001, 2.77718026e-002, -1.00520715e-001,
          -4.67703082e-002, 1.89609259e-001, 1.52475052e-002,
          2.36379117e-001, 2.07961164e-002, -9.45833698e-003,
          7.23350123e-002, 2.43542828e-002, -1.57398388e-001,
          -6.37552664e-002, 1.64282322e-001, -9.15121846e-003,
          4.10985276e-002, -1.55603558e-001, -7.26049244e-002,
          2.69885827e-002, -9.55248028e-002, -9.24904570e-002,
          -2.88723670e-002, 1.91896334e-001, -1.97154824e-002,
          4.41386066e-002, -7.08315969e-002, 1.36141419e-001,
          8.60835016e-002, -1.00258514e-001, -1.72317728e-001,
          1.16634771e-001, 7.40413144e-002, -2.56339699e-001,
          -5.82054742e-002, 1.20037124e-002, -4.06697020e-002,
          2.75290664e-002, 6.59573823e-002, 1.00617781e-001,
          9.22380164e-002, -3.04216426e-002, -1.65226534e-001,
          5.90170920e-002, 1.10751009e-002, 8.42953324e-002,
          9.32785049e-002, 1.79942027e-001, 3.45708989e-002,
          2.23183587e-001, 1.29597485e-001, -3.55583251e-001,
          -1.99945509e-001, -1.49711743e-001, -8.60126838e-002,
          5.24202920e-002, 5.63585712e-003, 1.15320191e-001,
          1.21597722e-001, 5.08184917e-002, 1.03068063e-002,
          -3.86379734e-002, 4.48940881e-002, -7.88984075e-002,
          1.09349574e-004, 1.29403785e-001, -9.16740522e-002,
          4.96702120e-002, 1.08788230e-001, -5.28240576e-002,
          -1.86297130e-002, -2.43622120e-002, -9.91667509e-002,
          -3.42311780e-003, 1.37611544e-002, -1.12434879e-001,
          -4.74090725e-002, 6.71322718e-002, 6.59411028e-002,
          1.34771466e-001, -6.77831620e-002, -9.20692906e-002,
          -7.58330151e-002, -1.66857719e-001, -2.62106270e-001,
          9.48708802e-002, 1.93748564e-001, 7.44478405e-002,
          4.79046814e-002, -9.96594951e-002, -1.08675316e-001,
          1.49323614e-002, 1.10152036e-001, -1.80877671e-001,
          1.72534049e-001, 1.37963951e-001, -1.22438720e-003,
          8.44833702e-002, -1.97976992e-001, -3.30813304e-002,
          -4.68466990e-002, 2.67600082e-002, -2.18153656e-001,
          -9.11230743e-002, -5.49167618e-002, -1.08159319e-001,
          -1.11787394e-002, -4.81612273e-002, 1.19963042e-001,
          8.56747627e-002, -9.35609117e-002, -2.59952635e-001,
          1.87076982e-002, -1.26916692e-001, -9.91633758e-002,
          -7.19416663e-002, 3.84485498e-002, -1.88200865e-002,
          1.23998389e-001, 5.56478370e-003, -1.08254530e-001,
          1.53399408e-001, 1.57634601e-001, 8.43151659e-003,
          -6.42972961e-002, -6.31080717e-002, 1.40137240e-001,
          1.38112605e-001, 1.71439350e-002, -1.19290300e-001,
          3.22417617e-002, 1.76569566e-001, 1.16582684e-001,
          -4.69308607e-002, 2.33084336e-002, 2.56362651e-002,
          7.23247752e-002, 2.89931204e-002, 8.58412310e-002,
          -5.38039170e-002, -9.41518769e-002, -4.16690260e-002,
          -2.28810310e-001, -6.88864589e-002, 6.67244643e-002,
          9.49986279e-002, -1.77549854e-001, -1.93733454e-001,
          1.18240535e-001, 3.00932862e-002, -5.07393777e-002,
          -2.61221290e-001, -8.33086148e-002, 2.77422607e-001,
          2.64971703e-001, 1.16408840e-001, 9.67936143e-002,
          -6.55412078e-002, 6.48433864e-002, 8.36997181e-002,
          -4.79375757e-002, 1.09783467e-002, 6.33202866e-002,
          6.55779317e-002, -2.26103991e-001, -7.74533972e-002,
          3.42712700e-002, 1.07626647e-001, 2.25155085e-001,
          -4.43887785e-002, 2.18071386e-001, -8.08843002e-002,
          2.95899153e-001, 1.39604062e-001, 4.45276499e-002,
          -5.68528883e-002, -7.47586694e-003, 3.50507051e-002,
          -2.89714057e-002, -2.74897814e-001, -3.29902917e-001,
          -6.54607937e-002, -1.59247294e-001, -3.28744985e-002,
          -4.47027907e-002, -9.63264406e-002, 5.28060347e-002,
          -9.94494112e-005, -1.11008413e-001, -9.08563234e-005,
          -1.52408943e-001, -2.57884383e-001, -3.90467256e-001,
          -3.15552024e-004, 3.13550420e-002, 1.88787863e-001,
          1.73224285e-001, 4.89548855e-002, -1.37291610e-001,
          -1.48488879e-001, -4.61837202e-002, 1.04269892e-001,
          5.79483286e-002, 6.70636818e-002, 2.41341710e-001,
          2.23204970e-001, 5.18803187e-002, -1.51677474e-001,
          -2.53681630e-001, -2.18864247e-001, -1.98666394e-001,
          -8.11883733e-002, 2.23844185e-001, 2.78998092e-002,
          1.67259559e-001, -1.85108148e-002, 1.39370054e-001,
          -6.79903328e-002, -1.54449061e-001, -3.15886825e-001,
          -1.10927872e-001, 1.15117937e-001, -5.48350960e-002,
          4.78692167e-002, -5.45865744e-002, 3.41886319e-002,
          -6.94370270e-002, -1.48849310e-002, -1.95467025e-001,
          -1.46469072e-001, 1.59648255e-001, -1.68716218e-002,
          1.45951807e-001, 1.11932509e-001, 7.40052015e-002,
          -8.56375322e-002, -2.43118390e-001, -1.78368613e-001,
          -1.33540303e-001, 8.54363441e-002, -5.84246777e-002,
          1.44319370e-001, -2.29129624e-002, 4.70066331e-002,
          -3.85000519e-002, -1.05012141e-001, 3.44370306e-002,
          -6.72578290e-002, 7.06966594e-002, -8.02475289e-002,
          -1.24382012e-001, -1.46760836e-001, -5.09595498e-002,
          -5.37971258e-002, 2.71084830e-002, -9.74156335e-002,
          5.75647056e-002, -5.45280427e-002, -1.79401740e-001,
          -1.39474345e-003, -6.14209212e-002, 5.55088334e-002,
          -3.49468887e-002, -3.13265659e-002, -3.74374613e-002,
          -2.15385497e-001, -5.31684570e-002, -3.48336965e-001,
          -1.27740994e-001, -2.45814487e-001, -2.17569638e-002,
          -1.82071760e-001, -6.12792093e-003, 4.02245484e-003,
          5.79973124e-002, 8.50894451e-002, -1.02305047e-001,
          7.49139860e-002, 1.18176699e-001, 7.57897124e-002,
          1.15381747e-001, 1.59851879e-001, 2.61267245e-001,
          2.01191500e-001, 2.82332059e-002, -2.22888157e-001,
          1.55790269e-001, -1.52318820e-001, 1.15675461e-002,
          9.27052796e-002, 3.55822183e-002, 2.84920558e-002,
          3.69218774e-002, -5.76228946e-002, -3.97587530e-002,
          1.41700700e-001, -1.15349039e-001, 1.51266336e-001,
          -8.26123171e-003, -2.86966353e-003, -1.62024960e-001,
          -4.20306474e-002, -1.75798044e-001, -1.83684930e-001,
          3.96120436e-002, -1.03479676e-001, -1.53239906e-001,
          6.62429780e-002, 9.54900384e-002, 1.52452156e-001,
          -8.29544067e-002, -7.99299181e-002, -2.21368566e-001,
          -1.53405994e-001, -5.21364585e-002, -6.98946491e-002,
          9.50774923e-002, -1.91022363e-002, 9.58192907e-003,
          1.05974711e-001, 3.85488905e-002, -1.22549966e-001,
          1.45665467e-001, -9.43547953e-003, 1.74329683e-001,
          1.07823536e-001, 9.64780822e-002, -7.60067180e-002,
          8.52194354e-002, -7.91568533e-002, -2.63791025e-001,
          1.71255976e-001, 1.35109723e-001, 2.01922402e-001,
          2.42945552e-001, 2.56392509e-001, -1.00069828e-001,
          -3.07500828e-003, -1.41194016e-001, -3.46299678e-001,
          -1.26342982e-001, -1.17353247e-002, 2.99108718e-002,
          -2.95828488e-002, -2.26824190e-002, -2.14281417e-002,
          1.23399697e-001, -9.03383866e-002, -1.28398910e-001,
          8.98564234e-002, 1.15793370e-001, -5.83723711e-004,
          1.88365325e-001, 9.85102579e-002, -5.64848408e-002,
          -4.90633436e-002, -7.42152855e-002, -2.95046508e-001,
          -2.23115310e-001, -6.88178092e-002, 1.35070041e-001,
          1.89234257e-001, 2.38995656e-001, -7.15831667e-002,
          -1.11489281e-001, -1.65643513e-001, -1.62923858e-001,
          -9.91374403e-002, 7.93778077e-002, 3.27636898e-002,
          1.04760349e-001, 1.19736649e-001, -7.33302012e-002,
          -8.75161216e-002, -1.49828359e-001, -1.58283055e-001,
          -2.50244737e-001, -1.22154236e-001, -6.60527349e-002,
          1.71014354e-001, 9.35725495e-002, -1.35692015e-001,
          9.96789336e-002, 1.41934827e-001, 1.46334702e-002,
          -1.53227791e-001, -7.90727586e-002, -2.26411112e-002,
          -2.56599635e-002, -4.14496735e-002, -2.31410041e-002,
          -1.63853690e-001, -1.60248891e-001, -2.30485886e-001,
          -1.26508504e-001, 3.84196336e-003, -1.05796896e-001,
          -3.97360045e-003, -9.16811302e-002, -1.27639249e-001,
          -1.00068204e-001, -3.74574810e-002, 7.49827549e-002,
          -6.50962666e-002, -2.81227566e-002, -3.69951546e-001,
          3.80005799e-002, -2.86335684e-002, -4.69442531e-002,
          -3.28952558e-002, -7.14785010e-002, -3.12444150e-001,
          -2.25470230e-001, -1.14997394e-001, -1.11080512e-001,
          -2.49255210e-001, -1.75460771e-001, -9.08909142e-002,
          9.90383327e-002, 9.02331099e-002, -3.84893827e-002,
          -2.93476909e-001, -1.43662885e-001, -2.11607590e-001,
          -7.46521503e-002, -9.34859142e-002, 2.39660759e-002,
          -1.03970386e-001, -3.92399845e-004, 7.65633136e-002,
          -4.10467908e-002, 4.01419103e-002, -3.38064879e-001,
          -1.59524456e-001, 1.35193560e-002, 4.01463285e-002,
          -1.44168764e-001, -1.06772549e-001, -4.27183062e-002,
          -1.74910188e-001, -9.15985256e-002, -3.25488478e-001,
          -3.13514560e-001, -3.99844676e-001, -2.07121745e-001,
          9.82813910e-002, 1.94611058e-001, 3.66586864e-001,
          7.87867755e-002, -1.04858950e-001, 7.02739358e-002,
          4.71694246e-002, 2.69110620e-001, 1.39542356e-001,
          8.45444277e-002, 1.02017626e-001, 1.04993217e-001,
          -4.63875048e-002, -2.53539473e-001, -6.51620477e-002,
          -2.35625699e-001, -2.80039519e-001, -2.20869467e-001,
          -1.61043748e-001, -2.17386223e-002, -8.26526657e-002,
          -1.19572744e-001, -4.36669216e-002, -6.48893192e-002,
          1.25828711e-002, -2.13120610e-001, -1.46839797e-001,
          -1.25577301e-001, -1.79651588e-001, -2.61672765e-001,
          -1.23881891e-001, -2.62786061e-001, -2.09401831e-001,
          -6.96679205e-002, -1.60849884e-001, -5.23227155e-002,
          4.91273962e-002, 1.42848790e-001, 1.45470187e-001,
          -1.86472181e-002, -1.13615461e-001, 4.94223349e-002,
          -4.67185713e-002, -2.84349713e-002, -9.61169228e-002,
          -1.81331336e-001, 1.99372284e-002, -2.30440870e-002,
          -4.96599525e-002, -1.72581181e-001, -3.00951358e-002,
          -8.21814016e-002, -1.82675660e-001, -7.66003802e-002,
          9.35859010e-002, -5.31807430e-002, -2.81879872e-001,
          9.55934823e-003, 4.45379652e-002, -9.51319709e-002,
          -1.79600060e-001, 1.56562060e-001, 1.55504540e-001,
          4.32787165e-002, 1.09747611e-001, -6.19575344e-002,
          1.20358635e-002, 1.61266521e-001, -1.97820053e-001,
          -3.06807816e-001, -3.58168036e-002, 1.76167980e-001,
          -1.23550609e-001, -8.49175081e-003, -1.06490508e-001,
          4.65394855e-002, 8.14655647e-002, 1.13127321e-001,
          -6.74765110e-002, 7.71546140e-002, -2.24855598e-002,
          -8.27952772e-002, -5.62473759e-003, 2.86391638e-002,
          1.29720256e-001, 1.04442388e-001, 1.10931555e-002,
          -3.00734401e-001, -3.04749250e-001, -3.02346706e-001,
          -3.21773291e-002, -8.40481184e-003, 7.23937154e-002,
          6.77166507e-002, 1.92982927e-001, -1.45506531e-001,
          -4.77219112e-002, -3.35335135e-002, 6.75992370e-002,
          7.16182664e-002, 2.97178961e-002, -1.03123739e-001,
          -6.14046380e-002, 1.18446909e-001, -8.40074420e-002,
          -1.60726577e-001, -1.49332866e-001, 1.27139315e-001,
          -2.83012718e-001, -2.08591014e-001, -6.29211292e-002,
          1.34831592e-001, 6.74751922e-002, 9.55064669e-002,
          3.75085399e-002, -2.29170293e-001, -4.14005101e-001,
          2.23849453e-002, 2.30275229e-001, 2.44898293e-002,
          1.73948273e-001, 9.25642103e-002, 2.45419294e-002,
          -4.68112491e-002, -2.83800960e-002, -2.23349258e-001,
          -1.05599307e-001, -3.83468419e-002, -1.71791956e-001,
          -4.17705357e-001, 9.32198390e-003, -8.99734870e-002,
          -2.52322286e-001, -2.56172210e-001, -1.14124432e-001,
          -8.84538740e-002, 2.70440102e-001, 1.16979182e-002,
          -2.12350432e-002, 1.45868540e-001, -5.82681336e-002,
          2.02860311e-002, -1.96212023e-001, -1.60987884e-001,
          -2.91182667e-001, -3.18695158e-002, -1.24062233e-001,
          -2.17306286e-001, -1.44763216e-001, -2.07990836e-002,
          9.51815397e-002, 1.12050205e-001, -4.24399614e-001,
          -1.37514889e-001, 9.32356268e-002, 4.99832481e-002,
          7.97229260e-002, 6.56019375e-002, 9.05209705e-002,
          1.73343256e-001, 8.66449177e-002, -2.88295329e-001,
          -2.45632723e-001, -3.20003852e-002, -1.50200993e-001,
          -3.75273585e-001, -3.77218962e-001, -2.10046276e-001,
          1.46142682e-002, -2.81843841e-001, -4.15690064e-001,
          -8.17758143e-002, 2.03817934e-001, -5.25494665e-003,
          -3.02238524e-001, -1.83772385e-001, -6.57469183e-002,
          -1.23730876e-001, -1.33041650e-001, -1.93162575e-001,
          -4.95938569e-001, -2.32399955e-001, -1.44859403e-001,
          -2.35659346e-001, -1.65884897e-001, 9.58881006e-002,
          1.53619975e-001, 8.82460773e-002, -3.96619260e-001,
          -2.43047372e-001, -6.09940700e-002, -6.06184155e-002,
          -1.14152178e-001, -7.49696344e-002, 9.17071775e-002,
          1.40810862e-001, 2.62090117e-001, -2.82630939e-002,
          -3.56355131e-001, -3.08813900e-001, -4.14304852e-001,
          -4.49498117e-001, -3.27621937e-001, -3.14614862e-001,
          -4.67158645e-001, -2.74569392e-001, -2.73068041e-001,
          -2.23859131e-001, -2.17423633e-001, -4.13562685e-001,
          -5.11304736e-001, -1.04937054e-001, 4.00536172e-002,
          -6.10593648e-004, 4.55650389e-002, -3.34771834e-002,
          -3.01441818e-001, -2.16739222e-001, -2.76882887e-001,
          -2.07066253e-001, -1.86840698e-001, -1.93940669e-001,
          -1.20270289e-001, -9.47140623e-003, 5.40004149e-002,
          -1.23201334e-003, 8.54885280e-002, -6.79511726e-002,
          1.17294364e-001, 1.65003404e-001, 1.42420337e-001,
          3.89659442e-002, 1.99453696e-003, 7.13078529e-002 ]
   decision_functions:
      -
         sv_count: 1
         rho: -1.1238813570981929e+001
         alpha: [ 1. ]
         index: [ 0 ]
