%YAML:1.0
my_svm: !!opencv-ml-svm
   svm_type: C_SVC
   kernel: { type:LINEAR }
   C: 1.0000000000000001e-001
   term_criteria: { epsilon:1.1920928955078125e-007, iterations:1000 }
   var_all: 1764
   var_count: 1764
   class_count: 2
   class_labels: !!opencv-matrix
      rows: 1
      cols: 2
      dt: i
      data: [ -1, 1 ]
   sv_total: 1
   support_vectors:
      - [ 7.05896085e-003, 9.49672312e-002, 3.43625769e-002,
          3.40766013e-002, -1.05260514e-001, -5.27700707e-002,
          -2.95163179e-003, 4.34327172e-003, -4.38544601e-002,
          -1.49336055e-001, -2.35518500e-001, -1.11036208e-002,
          -1.07127339e-001, -3.93453985e-001, -1.79804429e-001,
          -2.15115249e-002, -1.75577886e-002, -3.69621068e-002,
          -1.10097587e-001, 1.78544357e-001, -2.04085544e-001,
          -1.55336499e-001, 9.75911021e-002, -4.56465818e-002,
          -9.19443518e-002, -9.44906548e-002, -2.43513212e-001,
          -2.15376854e-001, -3.91011626e-001, -2.75148749e-001,
          -2.21273497e-001, -1.16642267e-001, -2.92443454e-001,
          -3.31743419e-001, -1.08338803e-001, -1.15511298e-001,
          -1.00068308e-001, 1.64196357e-001, 2.95402318e-001,
          -3.26557979e-002, -3.72410625e-001, -1.28971472e-001,
          1.53631002e-001, 1.30584672e-001, -8.92526507e-002,
          -5.07624857e-002, 1.98565692e-001, -1.64055020e-001,
          -1.74983636e-001, -2.73563594e-001, -3.57924961e-002,
          2.26129740e-001, 6.23160638e-002, -1.44805536e-001,
          -1.19384058e-001, -1.65491208e-001, -2.36582592e-001,
          -2.44736865e-001, -5.19684367e-002, -1.40161425e-001,
          -1.06839128e-001, -3.79779153e-002, -1.59947753e-001,
          -3.66394818e-002, -1.97677940e-001, -3.85705203e-001,
          -3.97031754e-001, 1.22085093e-002, -2.80751400e-002,
          -2.12861344e-001, -3.42581600e-001, -2.91687161e-001,
          -7.96404481e-002, 1.76593453e-001, -2.85411716e-001,
          5.15695103e-002, 1.52872890e-001, 1.25556514e-001,
          2.12361872e-001, 2.70351898e-002, -1.47603616e-001,
          -3.32955539e-001, 1.38228834e-002, -3.08397681e-001,
          -2.84615252e-002, 1.00180376e-002, -7.24177957e-002,
          8.61527864e-003, -3.82414944e-002, -3.86246264e-001,
          4.93406653e-002, 1.76033691e-001, -1.94559410e-001,
          -1.64875805e-001, 3.26854408e-001, 1.33835718e-001,
          3.81823652e-003, -8.44998434e-002, -8.81974176e-002,
          9.89941359e-002, -1.53907865e-001, -1.75511613e-001,
          -4.12426710e-001, 1.04072750e-001, 1.12104034e-002,
          3.17893885e-002, -5.51333476e-004, 4.39695679e-002,
          -2.70109683e-001, 1.23287559e-001, -3.66173796e-002,
          3.71291518e-001, 1.24550916e-001, -3.56502347e-002,
          -7.41529018e-002, 1.28062859e-001, -2.20187277e-001,
          -4.05911386e-001, -2.56659120e-001, -2.49765769e-001,
          2.28910923e-001, 8.19859188e-003, 1.15865074e-001,
          -1.80953771e-001, 3.73767316e-002, -1.77539974e-001,
          2.29393080e-001, 2.58890331e-001, 1.90725550e-002,
          6.04032911e-002, 1.95865199e-001, 2.70373318e-002,
          1.85982175e-002, 2.07318723e-001, 7.28151426e-002,
          9.74861607e-002, -1.06265552e-001, -1.55829936e-001,
          -1.15663642e-002, 5.58958668e-003, 3.13406847e-002,
          -7.15402588e-002, 8.21321271e-003, 2.01575905e-001,
          -3.17556232e-001, -5.33989742e-002, -1.24237850e-001,
          6.54763207e-002, -8.59392211e-002, -2.05591545e-001,
          -1.43732354e-001, -2.30240207e-002, -1.58388436e-001,
          -4.69633490e-001, -1.15663499e-001, 5.98039813e-002,
          1.60816703e-002, -9.11512077e-002, -2.04026654e-001,
          -3.08184288e-002, 8.92647579e-002, -3.10119092e-001,
          7.97101185e-002, -1.51670396e-001, -1.97335407e-001,
          6.51461631e-002, -4.90587763e-002, -1.67647555e-001,
          -1.99590847e-001, 2.75579914e-002, 2.27367282e-001,
          -2.04481725e-002, -1.82800531e-001, -1.15174189e-001,
          4.66612279e-002, -1.48866385e-001, -2.56168962e-001,
          -8.82466137e-002, 1.55017599e-001, 1.24908164e-001,
          -5.03582597e-001, 8.38943049e-002, 2.64806777e-001,
          1.35519966e-001, -1.03400536e-001, -1.60699174e-001,
          -2.89910942e-001, -2.69619018e-001, -4.50035572e-001,
          -1.46656424e-001, 2.62133211e-001, 2.19631299e-001,
          9.12903175e-002, -1.26430839e-001, -6.75414875e-002,
          -2.73740232e-001, -2.74408460e-001, -1.96951985e-001,
          -1.52185172e-001, -1.15430802e-001, -2.78007519e-002,
          -1.68724433e-002, -2.23550528e-001, -4.73712891e-001,
          -1.36847913e-001, 9.77231041e-002, 7.86934793e-002,
          -1.25464112e-001, -1.46530215e-002, -3.18890251e-002,
          -6.86451420e-002, -1.58599705e-001, -2.05941141e-001,
          4.76402193e-002, 4.71874885e-002, 1.01089932e-001,
          7.92615414e-002, 1.48284242e-001, 2.01024935e-002,
          5.03123142e-002, 1.05449125e-001, 9.61392894e-002,
          -2.66100138e-001, -4.42985952e-001, -2.58309782e-001,
          5.98512769e-001, 3.45607549e-001, 2.82500267e-001,
          5.05317628e-001, 5.85866868e-001, 2.38982216e-001,
          8.50703195e-002, -4.69337143e-002, 3.90281767e-001,
          -4.74474698e-001, -3.27803165e-001, -3.68295729e-001,
          -1.34499535e-001, -3.50902289e-001, -3.49245697e-001,
          -3.32853943e-001, -5.24855733e-001, -4.68953401e-001,
          5.30912802e-002, 2.50532757e-002, 7.50176385e-002,
          2.09890127e-001, -9.74208713e-002, -6.30868435e-001,
          -6.08550668e-001, -4.16672707e-001, 6.13931827e-002,
          -1.08477458e-001, 2.41861030e-001, -1.60020486e-001,
          -1.34158939e-001, 6.55438518e-003, 1.05473638e-001,
          6.83139563e-002, 5.89132868e-003, -2.39475220e-001,
          -2.05473304e-002, -2.68384725e-001, -2.59437710e-001,
          6.67628124e-002, 4.51303981e-002, -1.09666377e-001,
          -1.47034124e-001, -7.24016577e-002, 3.94925196e-003,
          -1.91373751e-001, -1.78462744e-001, 8.78121555e-002,
          -1.57078922e-001, -9.84664559e-002, 9.79379043e-002,
          8.29475075e-002, 1.11285217e-001, -3.85231733e-001,
          -2.58387685e-001, -2.58457959e-001, -3.07820946e-001,
          -1.03977762e-001, -8.32565427e-002, -2.19525203e-001,
          -1.12966418e-001, -4.21980694e-002, -1.69169962e-001,
          -6.18444756e-002, -2.30161369e-001, -2.72639692e-001,
          -1.04864709e-001, 1.13048844e-001, 7.30722174e-002,
          8.42856169e-002, 1.61785454e-001, 1.99044449e-003,
          -3.78760174e-002, -3.45034106e-003, -2.62131870e-001,
          -2.17761829e-001, 3.76133397e-002, -1.33785559e-002,
          -5.26270680e-002, -1.05432570e-001, -1.51279777e-001,
          -5.48686534e-002, -1.38738036e-001, -9.46169272e-002,
          4.60285582e-002, -7.51075372e-002, -9.58535075e-002,
          5.65279610e-002, 1.16750166e-001, -8.45781341e-003,
          -1.17659807e-001, -2.64031738e-001, -1.59191657e-002,
          -3.27105343e-001, 4.08577062e-002, -1.19186617e-001,
          -1.59292128e-002, -3.16220112e-002, -1.28840998e-001,
          1.25484601e-001, 4.11525518e-001, 1.72829986e-001,
          3.60499844e-002, 6.89013004e-002, -3.16461106e-003,
          4.56776749e-003, 5.76215126e-002, -4.39784750e-002,
          2.01152906e-001, 2.30276361e-001, 6.24243207e-002,
          -1.14700109e-001, -4.72415835e-002, -1.06013305e-002,
          1.12506170e-002, 9.33270454e-002, -8.03963691e-002,
          1.04291543e-001, 8.62361863e-002, 5.49835386e-004,
          -6.20514490e-002, 6.90430924e-002, -9.71664861e-002,
          7.68246502e-002, 4.09325100e-002, -8.21042657e-002,
          5.80936745e-002, -1.49553165e-001, 2.96532735e-002,
          -2.39816725e-001, -1.04769580e-002, 6.72190264e-002,
          8.72901753e-002, 1.21363327e-001, -9.23024788e-002,
          1.40919790e-001, 6.84551001e-002, -1.32844958e-003,
          -8.53501409e-002, -1.52584359e-001, -5.93915135e-002,
          2.16157027e-002, 3.64786498e-002, -8.92918333e-002,
          -7.19278976e-002, -2.99501680e-002, -1.48066029e-001,
          2.50023394e-003, -1.25556827e-001, -2.82245755e-001,
          -2.73356348e-001, -2.16595545e-001, 9.08631310e-002,
          8.59902054e-002, -6.83760736e-003, 3.43152732e-002,
          7.33890310e-002, 7.96918273e-002, 2.09804952e-001,
          -1.62101053e-002, 3.22880186e-002, -7.15912506e-002,
          -1.21136978e-001, -7.97173381e-002, 5.35898954e-002,
          2.41524782e-002, 1.43451116e-003, 1.90228686e-001,
          -1.17812961e-001, -1.87380146e-002, 1.01562306e-001,
          -1.06336161e-001, -6.36990517e-002, -6.52078092e-002,
          1.12446144e-001, -1.30668432e-001, -1.02547072e-001,
          -1.83381259e-001, 1.09428354e-002, 1.98848080e-002,
          -1.40418127e-001, 1.73863731e-002, 1.31511502e-002,
          -1.41341495e-003, 5.81119657e-002, -1.00800365e-001,
          -1.09932870e-001, -1.04152024e-001, -9.90550965e-002,
          -7.19956383e-002, 2.42747609e-002, 9.30842534e-002,
          -1.16400056e-001, -8.00007060e-002, 1.50645763e-001,
          -1.03578806e-001, -1.35047706e-002, 3.40501219e-002,
          6.55773953e-002, 2.98101902e-001, 2.44775072e-001,
          -2.74706446e-002, 8.81721303e-002, 4.38163094e-002,
          -1.81235243e-002, 1.05473846e-001, 7.06496239e-002,
          -1.92958936e-001, 4.17215824e-002, 4.28741984e-002,
          9.69237462e-003, -2.34991342e-001, -2.35497445e-001,
          -1.26116306e-001, -2.17142820e-001, -1.79624602e-001,
          -7.51775503e-002, -2.87535757e-001, -1.33293480e-001,
          5.21318577e-002, -5.75696714e-002, -1.35921910e-001,
          6.87567471e-003, -1.73332781e-001, -5.47430404e-002,
          1.70789589e-003, 3.71920913e-002, 1.28387176e-002,
          -5.10067912e-004, -2.63906568e-001, -1.23728737e-001,
          1.62372980e-002, 8.18188936e-002, 3.90309393e-002,
          -1.28091305e-001, -1.00801557e-001, 9.14548188e-002,
          1.23992369e-001, -2.94290204e-002, -6.90462738e-002,
          2.71082371e-002, 1.96743873e-003, -8.95850807e-002,
          -3.01724344e-001, -3.73191863e-001, -1.91653416e-001,
          2.13362128e-001, -7.69471005e-003, -2.69546092e-001,
          -2.65756901e-002, -1.88620642e-001, -1.90437540e-001,
          2.62293709e-003, -6.96255714e-002, 1.57752596e-002,
          6.90950975e-002, -3.05140495e-001, -5.41308701e-001,
          -2.49804765e-001, 5.60524426e-002, 1.79990441e-001,
          -2.14565739e-001, -2.48108730e-001, -4.40296754e-002,
          2.37771437e-001, 3.04879081e-002, -1.73874915e-001,
          3.54519859e-002, 5.99345155e-002, -9.69582647e-002,
          1.16187282e-001, -8.05995539e-002, -3.03868521e-002,
          -4.84187938e-002, -3.80322725e-001, -2.10177332e-001,
          1.70489654e-001, 3.05495530e-001, 9.83696952e-002,
          1.66741714e-001, -1.10840481e-002, 1.25570446e-002,
          -1.45873025e-001, -2.66431868e-001, 4.89402451e-002,
          8.08778331e-002, 1.98881924e-001, -2.34309770e-002,
          1.00544766e-001, -2.13507295e-001, -1.50381178e-001,
          -1.99306179e-002, -1.73982531e-001, 1.16172079e-002,
          1.05904981e-001, 2.21322998e-001, 1.16995350e-001,
          7.30564743e-002, -8.51270333e-002, 9.95328184e-003,
          -1.07762076e-001, 4.59147766e-002, 1.22115344e-001,
          1.31035492e-001, 1.21659435e-001, -1.64579451e-002,
          -1.15156047e-001, -2.49211803e-001, -2.38128960e-001,
          -2.39649311e-001, -1.21971630e-001, -1.92394797e-002,
          3.54892053e-002, 7.87800997e-002, 2.39765900e-003,
          -5.03475592e-002, 7.18061253e-002, 1.42292961e-001,
          1.56353861e-001, 1.15097255e-001, 9.57926586e-002,
          1.46361083e-001, 1.93202600e-001, -4.90455441e-002,
          1.18651064e-002, -5.47750853e-002, 8.21460858e-002,
          6.31668642e-002, 4.15753648e-002, -7.27555975e-002,
          -7.85372034e-002, 6.76800534e-002, -7.94454738e-002,
          -7.79476687e-002, 9.42158885e-003, -2.08482474e-001,
          -3.69698815e-002, 6.36245459e-002, 1.88555151e-001,
          1.83611169e-001, 8.44036788e-002, -2.83463132e-002,
          -1.60377808e-002, -2.15655997e-001, 1.15572959e-001,
          -1.13257982e-001, 6.12537637e-002, 1.92177221e-002,
          -3.13880034e-002, 5.68029843e-002, 9.27938968e-002,
          1.20818064e-001, 3.71046085e-003, 1.87376574e-001,
          -5.08174188e-002, -9.68564823e-002, -9.34732854e-002,
          -8.19091350e-002, 4.53513265e-002, 5.88166825e-002,
          5.62429056e-002, 4.27292064e-002, 1.92545518e-001,
          -3.07425577e-002, -5.41961603e-002, 6.43005967e-002,
          2.00227536e-002, 1.58445194e-001, -2.99811121e-002,
          1.04204983e-001, -6.15904033e-002, 1.26230821e-001,
          -4.36650626e-002, -7.72303492e-002, 1.27713578e-002,
          5.30305281e-002, 3.55605297e-002, 9.20437649e-002,
          -1.33259758e-001, -3.11004855e-002, 1.04976423e-001,
          -9.50649008e-002, 1.17580593e-001, 3.56697105e-002,
          1.55434171e-002, 4.74759936e-002, 5.94622106e-005,
          -3.21256109e-002, 7.27450848e-002, 8.05048719e-002,
          -4.18729894e-002, -1.06908411e-001, -1.19015850e-001,
          -1.26093715e-001, -8.51022452e-002, -1.61666676e-001,
          -6.85923127e-003, 3.02361399e-002, -7.73906037e-002,
          -1.65311158e-001, -2.12093472e-001, -3.62750366e-002,
          -2.79724658e-001, -1.76332906e-001, -8.08863342e-002,
          -7.15525150e-002, 2.32976191e-002, -3.80887911e-002,
          -9.05395150e-002, -1.00679122e-001, -2.97253355e-002,
          -3.41623984e-002, 8.87111798e-002, -9.67170577e-003,
          -4.15963531e-002, 3.57521437e-002, -9.01896041e-003,
          -8.60347375e-002, 5.72101548e-002, -7.08271936e-002,
          -9.17171389e-002, 9.45832282e-002, 7.56084546e-002,
          5.74346446e-002, -1.08735729e-002, -1.09860934e-001,
          -2.21417978e-001, -1.90740511e-001, 1.17368713e-001,
          -9.66073722e-002, -2.57607643e-002, -5.71938008e-002,
          7.38944039e-002, 3.36811915e-002, -3.01156063e-002,
          -1.37950361e-001, -1.33296102e-001, -3.40238214e-002,
          -3.62199433e-002, 4.31006700e-002, -7.88706467e-002,
          -8.95104278e-003, -1.70069486e-001, -1.94827557e-001,
          -1.26314104e-001, 3.61399986e-002, 1.99706182e-002,
          7.68857300e-002, 1.87629804e-001, 3.94134931e-002,
          8.77843276e-002, 2.28347676e-003, -3.89298201e-002,
          -2.15722829e-001, 1.13677986e-001, -6.61974177e-002,
          -1.02706878e-002, 2.25459665e-001, -5.05957305e-002,
          1.17771171e-001, 1.28067210e-001, -1.21524230e-001,
          -3.45846359e-003, -2.80333310e-001, 2.87505575e-002,
          5.89241050e-002, 7.73121566e-002, -1.01515681e-001,
          -1.12422921e-001, 7.59763047e-002, 1.70565918e-002,
          1.13257736e-001, -8.09681788e-002, -1.12775363e-001,
          4.67431210e-002, 2.56795809e-002, -2.02721238e-001,
          3.72628681e-002, 7.26030767e-002, -8.50932822e-002,
          -5.42686097e-002, -7.55616128e-002, 7.66544938e-002,
          1.17537051e-001, 3.23761478e-002, -1.74876496e-001,
          -5.72270108e-003, -2.19688043e-002, 8.20726454e-002,
          -1.25425741e-001, 1.38149899e-003, -6.73809424e-002,
          1.84106156e-001, -3.52519490e-002, -1.56672180e-001,
          -1.37374595e-001, 3.41945328e-002, 4.89207022e-002,
          1.51216507e-001, -1.98446617e-001, -1.97292164e-001,
          1.13711201e-001, 2.10454781e-002, -2.49585629e-001,
          1.01981990e-001, 3.54557298e-002, -2.34903954e-002,
          -1.58991724e-001, -4.85638201e-001, -9.03788731e-002,
          2.27751702e-001, 2.57712603e-001, -1.21220618e-001,
          -1.26596540e-001, 4.69946899e-002, 8.95273760e-002,
          -3.35791819e-002, -1.94820706e-002, -4.85138893e-002,
          2.33014569e-001, 1.75210200e-002, -2.56226897e-001,
          -7.21394122e-002, 8.59959871e-002, 2.72730030e-002,
          -1.05839960e-001, -9.58976448e-002, -4.36908677e-002,
          1.58311307e-001, 1.01589680e-001, -1.67133465e-001,
          2.36231893e-001, 1.69915423e-001, 7.66957328e-002,
          9.48747247e-002, -4.42242265e-001, 2.56437272e-001,
          9.53955501e-002, 2.08092153e-001, 8.33544433e-002,
          9.70898867e-002, -3.12422533e-002, -1.12284958e-001,
          1.35239080e-001, -1.86804920e-001, 1.69979230e-001,
          9.29652806e-003, 1.66890621e-001, 1.15937501e-001,
          1.96964011e-001, 1.50076509e-001, -7.98933282e-002,
          1.57395035e-001, -2.19202563e-001, 2.47775204e-002,
          1.29515305e-001, 1.31704167e-001, 9.21947733e-002,
          1.61892354e-001, -5.03046345e-003, -3.07927020e-002,
          1.58779457e-001, 3.10971290e-002, -1.07226253e-001,
          -1.46212935e-001, 9.95381922e-002, 1.24155067e-001,
          -6.28213957e-002, 8.56702253e-002, 1.09696398e-002,
          3.08806509e-001, -1.84317812e-001, 2.19872370e-001,
          6.59865290e-002, 2.83796955e-002, -2.44735274e-002,
          1.94774102e-002, -9.13883746e-003, 1.64789453e-001,
          1.26314595e-001, -1.15543589e-001, 2.11839765e-001,
          1.99755073e-001, 3.21993008e-002, 6.55597001e-002,
          -1.96213946e-002, -6.05093129e-003, -1.60212249e-001,
          3.88772756e-001, -8.83700047e-003, 9.36327651e-002,
          -4.66242842e-002, 8.39751288e-002, -1.03862388e-002,
          -6.47721440e-002, -4.50511537e-002, -1.00363024e-001,
          1.34192929e-001, 1.27903432e-001, -2.14490220e-002,
          4.01913412e-002, 2.94544026e-002, -3.41630764e-002,
          1.28744971e-002, -4.98542003e-002, 5.59647232e-002,
          -2.88739782e-002, -3.30154300e-001, 7.62638599e-002,
          1.02500908e-001, 1.16584860e-001, 4.95975465e-002,
          -4.94264439e-003, -2.63953637e-002, -3.39291357e-002,
          1.18175689e-002, -1.38308555e-001, 6.24692666e-006,
          7.19692111e-002, 5.37169687e-002, -6.02859445e-003,
          -1.38759255e-001, 6.01623878e-002, -4.79621291e-002,
          2.24003457e-002, -1.15871750e-001, 3.05100833e-003,
          1.21093787e-001, 3.54225077e-002, -4.78415340e-002,
          -1.19170070e-001, -1.10596763e-002, 6.79562911e-002,
          3.40238027e-002, -2.14322992e-002, -6.15884364e-002,
          2.04738528e-002, 1.75838359e-002, -2.21488755e-002,
          -4.44407575e-002, -5.30662350e-002, -1.42661691e-001,
          -2.73360386e-002, -2.75818467e-001, -4.92917933e-002,
          2.83771940e-002, 7.52861276e-002, -7.39330202e-002,
          -2.17055500e-001, -2.27633357e-001, -1.76700071e-001,
          4.90849465e-003, -1.32903069e-001, -1.09109990e-001,
          -4.30439450e-002, 9.53686088e-002, -1.02024443e-001,
          9.85802803e-003, -9.52583328e-002, -8.58770832e-002,
          -6.37952760e-002, -1.19681999e-001, -2.34424546e-001,
          -7.72341937e-002, 1.07211694e-001, 1.06247738e-002,
          4.52082977e-002, -1.71336576e-001, 7.46420175e-002,
          -2.45464500e-002, 1.28066624e-002, -6.92359805e-002,
          -2.82297768e-002, 1.59280449e-001, -6.00368902e-002,
          -8.83141905e-002, -1.97417051e-001, -8.75992998e-002,
          -7.62284594e-003, -1.89544290e-001, 2.38341987e-002,
          3.18569690e-002, 9.83925089e-002, -7.43926689e-002,
          -9.33587551e-002, -8.07835236e-002, -1.22440055e-001,
          -1.49219140e-001, -7.43704066e-002, 1.47728976e-002,
          -2.80636568e-002, 4.49986421e-002, -1.74101248e-001,
          1.36924297e-001, -2.26860587e-002, -7.35735474e-003,
          1.51660452e-002, -9.50393155e-002, -1.98147930e-002,
          1.80099890e-001, 1.52685881e-001, -1.52135883e-002,
          -2.55478569e-003, -7.06892535e-002, 3.36613581e-002,
          -9.63225886e-002, 1.18176714e-001, 1.44654913e-002,
          1.42578438e-001, 6.40079230e-002, -9.76928174e-002,
          -2.59158406e-002, 1.75941573e-003, 1.21940756e-002,
          6.51665181e-002, -2.24951729e-001, 1.53694302e-001,
          2.05141529e-001, 1.27958536e-001, -5.53750657e-002,
          1.93705522e-002, -1.40931681e-001, 6.00171797e-002,
          1.33245155e-001, -7.32560903e-002, 3.75836827e-002,
          2.24210411e-001, -1.88858528e-002, -1.60535932e-001,
          -1.20175928e-001, -1.72182903e-001, -1.74080171e-002,
          6.81816936e-002, -1.60312325e-001, 1.71505824e-001,
          1.99831128e-001, 9.68389809e-002, -3.95209752e-002,
          7.54355341e-002, -8.14378113e-002, 9.92233083e-002,
          1.30042836e-001, 4.85199355e-002, -2.42829714e-002,
          1.36872008e-001, 6.95918035e-003, -6.55068830e-003,
          -1.40691966e-001, 8.81759822e-002, -1.98089760e-002,
          1.08840704e-001, -2.26520255e-001, 5.45634814e-002,
          2.01700568e-001, -4.69689667e-002, -2.25317955e-001,
          2.03530461e-001, 1.54258043e-001, -1.70823365e-001,
          -6.46882653e-002, -1.46537334e-001, 1.19975805e-001,
          2.08025321e-001, 2.04158261e-001, 9.12674740e-002,
          1.28191084e-001, 6.58677006e-003, -7.45893419e-002,
          1.66881308e-001, -1.03663383e-002, -2.88607844e-004,
          2.04208061e-001, -4.47991304e-002, -6.86959475e-002,
          3.51828933e-001, 4.20822382e-001, 1.22111849e-001,
          7.22487122e-002, -7.06464574e-002, 1.04804665e-001,
          2.19116062e-001, 1.03251316e-001, 1.38989419e-001,
          6.29431680e-002, 5.21191210e-002, -7.77561814e-002,
          1.91996172e-002, -2.34370157e-001, -1.64457783e-001,
          2.14769900e-001, 1.74062163e-001, 8.85915756e-002,
          1.44341504e-002, -4.53631692e-002, -1.21447414e-001,
          1.51563078e-001, 7.92433508e-003, -8.85159057e-003,
          -1.18312083e-001, 2.45619081e-002, -1.49535507e-001,
          -2.03120112e-002, 2.00215657e-003, -9.01637301e-002,
          -2.06467360e-001, -3.24832261e-001, -3.77909958e-001,
          2.02544674e-001, 2.18249545e-001, -5.41432463e-002,
          1.62750617e-001, 2.52629388e-002, 7.82030374e-002,
          1.33066267e-001, -5.77686131e-002, -8.61619785e-002,
          -2.62317993e-002, -2.13001836e-002, -2.47343510e-001,
          -4.48807055e-004, 1.21201828e-001, -6.23939410e-002,
          3.06193322e-001, 1.35004729e-001, 2.50051290e-001,
          -2.27072295e-002, 6.55103698e-002, 2.82393806e-002,
          -2.34942138e-002, -3.97595428e-002, -1.63309261e-001,
          2.70222098e-001, 4.80399653e-002, 2.77506448e-002,
          -4.59613465e-002, -3.90204936e-002, -1.37779593e-001,
          2.35669911e-002, 2.51370221e-001, 1.23681054e-001,
          1.41254053e-001, 8.21296591e-003, -6.76841214e-002,
          -1.29691303e-001, -2.01337114e-002, -9.09818709e-002,
          4.98018228e-002, 1.35671452e-001, -3.49470899e-002,
          7.20285475e-002, -3.21999975e-002, -6.90929890e-002,
          -6.57633916e-002, -8.26558396e-002, -5.17054759e-002,
          -1.09211821e-003, 1.17257409e-001, -6.00286312e-002,
          2.11457685e-001, -1.33437842e-001, 8.35827962e-002,
          1.58866525e-001, -6.06852258e-003, -1.07578009e-001,
          -2.22548451e-002, 1.49139062e-001, -2.14391924e-003,
          2.21644744e-001, 1.95636731e-002, 2.56106141e-003,
          5.65142594e-002, 1.98419765e-002, -1.25933573e-001,
          -5.07768169e-002, 1.70497149e-001, 4.90228422e-002,
          3.15371528e-002, -1.10785224e-001, -5.86303324e-002,
          1.39625072e-002, -8.34340602e-002, -1.08433038e-001,
          -4.29709256e-002, 1.90911174e-001, 4.57017273e-002,
          3.43321860e-002, -3.39461267e-002, 9.05011669e-002,
          6.02830648e-002, -9.63898227e-002, -1.13763221e-001,
          1.27577215e-001, 1.82013046e-002, -2.53724366e-001,
          1.94313023e-002, -2.51836851e-002, -6.65884167e-002,
          6.71421830e-003, 1.07026078e-001, 1.52651563e-001,
          1.31984919e-001, -5.28821582e-003, -1.00022428e-001,
          9.25730020e-002, -4.95854439e-003, 7.18282312e-002,
          8.24168772e-002, 1.97517425e-001, 8.51538181e-002,
          1.77767366e-001, 1.46808654e-001, -3.23840886e-001,
          -1.53665021e-001, -1.43934861e-001, -8.24668705e-002,
          2.18586586e-002, 9.77389142e-003, 1.21996418e-001,
          1.36385009e-001, 5.69458306e-002, -1.84269249e-002,
          -3.14069167e-002, 1.32228918e-002, -7.02845007e-002,
          -4.71875770e-003, 9.55181867e-002, -1.10227630e-001,
          3.90846021e-002, 1.53071880e-001, -5.27364835e-002,
          -8.40930734e-004, -9.89174284e-003, -9.69724506e-002,
          -2.26731338e-002, -9.48565546e-003, -1.02717906e-001,
          -5.84707446e-002, 3.99928540e-002, 9.23743770e-002,
          1.65810212e-001, -5.58826402e-002, -7.29864687e-002,
          -6.09228611e-002, -1.81263715e-001, -2.80877411e-001,
          1.07165650e-001, 1.81148648e-001, 9.59379449e-002,
          1.20049715e-001, -1.24778368e-001, -1.24682255e-001,
          3.25966552e-002, 6.08454905e-002, -2.14381248e-001,
          1.44278839e-001, 1.38699293e-001, 7.29989335e-002,
          1.70560256e-001, -2.03231707e-001, -2.99025364e-002,
          -2.58313678e-002, 5.44682285e-003, -2.79907137e-001,
          -7.95031115e-002, -9.50500965e-002, -6.98373914e-002,
          -1.03262970e-002, -7.71234408e-002, 1.42363653e-001,
          1.13902308e-001, -9.26584825e-002, -2.52688169e-001,
          1.61808659e-003, -1.39874905e-001, -1.27233773e-001,
          -9.50131193e-002, 4.67491895e-002, -1.96347330e-002,
          1.44577935e-001, 1.65250823e-002, -9.59639251e-002,
          1.56034112e-001, 1.35396391e-001, -6.73356187e-003,
          -6.53269142e-002, -1.37908176e-001, 8.25039595e-002,
          1.22302257e-001, 1.55807026e-002, -1.31783277e-001,
          1.43851209e-002, 1.07484341e-001, 8.39801431e-002,
          -8.86956304e-002, 4.60825264e-002, 3.02489242e-003,
          8.70563015e-002, 6.00044988e-002, 1.01595290e-001,
          -7.44998455e-002, -1.29081964e-001, -6.83770403e-002,
          -2.33219028e-001, -5.26802763e-002, 6.00539818e-002,
          9.26373824e-002, -1.78961992e-001, -2.01573044e-001,
          1.22734889e-001, 1.25377458e-002, -1.15705401e-001,
          -2.87356555e-001, -1.09494798e-001, 2.64005810e-001,
          2.64791369e-001, 1.03480674e-001, 1.03663340e-001,
          -1.10157847e-001, 9.57193226e-003, 9.82813761e-002,
          -8.56879279e-002, 1.17491642e-002, 8.80070627e-002,
          6.42821193e-002, -2.26175934e-001, -9.25656557e-002,
          6.63128272e-002, 7.23088607e-002, 1.88819692e-001,
          -8.04929957e-002, 1.70918614e-001, -1.03711464e-001,
          2.71558881e-001, 1.36657745e-001, 6.84857816e-002,
          -8.05514753e-002, 3.24558616e-002, 7.84324184e-002,
          -3.95461805e-002, -3.21882784e-001, -3.41973364e-001,
          -3.05632725e-002, -2.04046041e-001, -7.90249705e-002,
          -7.58474469e-002, -5.26195802e-002, 1.16727851e-001,
          1.68553293e-002, -1.27344817e-001, -3.53796519e-002,
          -1.40389964e-001, -2.52655923e-001, -4.21873122e-001,
          -1.05777811e-002, 3.44779640e-002, 2.08907127e-001,
          2.06722900e-001, 4.40138094e-002, -1.14501387e-001,
          -1.49631292e-001, -6.29466847e-002, 7.82531947e-002,
          6.97837025e-002, 6.69467673e-002, 2.17674121e-001,
          2.20593810e-001, 8.89802724e-002, -1.92303106e-001,
          -2.22254679e-001, -2.31447548e-001, -2.09944144e-001,
          -7.17163011e-002, 2.44875968e-001, 4.71017957e-002,
          1.84821635e-001, 3.73192728e-002, 1.03435159e-001,
          -2.37359796e-002, -1.44367844e-001, -2.98108459e-001,
          -6.16299286e-002, 1.55790895e-001, -7.97142386e-002,
          5.93745522e-002, -2.17794105e-002, -1.38024823e-003,
          -8.39345008e-002, -1.55362440e-002, -1.87595099e-001,
          -1.36267811e-001, 1.52782008e-001, -3.63115482e-002,
          1.37056097e-001, 1.43183768e-001, 4.40750420e-002,
          -2.88748387e-002, -2.57263750e-001, -1.67927280e-001,
          -1.18971989e-001, 8.63267109e-002, -9.45856273e-002,
          1.43393844e-001, -5.58704883e-002, 3.59877981e-002,
          -5.15467040e-002, -7.03625455e-002, 4.55636382e-002,
          -4.51545157e-002, 1.04707599e-001, -7.16110170e-002,
          -8.16951990e-002, -1.12811863e-001, -4.09282632e-002,
          -7.46033341e-002, 2.91081350e-002, -1.35986358e-001,
          6.88747391e-002, -5.50670503e-003, -1.05461597e-001,
          1.41748553e-002, -4.75830436e-002, 4.57970798e-002,
          -3.96325737e-002, -2.30802037e-002, -4.73069772e-002,
          -1.64541736e-001, -8.39006063e-003, -3.40399653e-001,
          -1.08671844e-001, -1.99591771e-001, 1.30044986e-002,
          -1.35589853e-001, 5.09699136e-002, -1.59547497e-002,
          8.58242735e-002, 1.02419898e-001, -1.19130366e-001,
          5.11574335e-002, 1.50142595e-001, 9.46636423e-002,
          1.40886426e-001, 1.59012362e-001, 2.50023991e-001,
          1.81768343e-001, 4.21733223e-002, -2.24164307e-001,
          1.91264853e-001, -8.82672220e-002, 7.07235560e-002,
          9.83357653e-002, 4.57821079e-002, 1.09256823e-002,
          3.51641327e-002, -1.27050221e-001, -1.13960639e-001,
          7.14601502e-002, -1.12626426e-001, 1.70299605e-001,
          -6.75474806e-003, -1.95003413e-002, -1.48590848e-001,
          -1.01512842e-001, -1.73534557e-001, -1.82234958e-001,
          6.15079813e-002, -7.22161755e-002, -1.02249257e-001,
          1.08937241e-001, 1.12158507e-001, 1.37005925e-001,
          -1.26436949e-001, -1.20596141e-001, -2.21702695e-001,
          -1.97471932e-001, -4.49079685e-002, -3.48547548e-002,
          7.92746842e-002, -1.73344091e-002, 3.27929109e-002,
          1.50331557e-001, -1.52431987e-002, -1.28059104e-001,
          1.40225530e-001, -4.91707511e-002, 1.35945246e-001,
          1.18695848e-001, 5.81114739e-002, -6.01007715e-002,
          1.20954186e-001, -1.25262111e-001, -2.20057085e-001,
          1.96869761e-001, 7.90210068e-002, 1.47852451e-001,
          2.40908489e-001, 2.32441247e-001, -1.33304223e-001,
          1.60143580e-002, -1.59499377e-001, -3.33805650e-001,
          -1.99513003e-001, 1.30468537e-003, 4.22524065e-002,
          -1.56819839e-002, -2.85913367e-002, 1.02930050e-002,
          1.28222242e-001, -6.29107729e-002, -1.30668133e-001,
          9.37597677e-002, 1.23265177e-001, -1.25172520e-002,
          1.56917766e-001, 1.14920981e-001, -1.04217812e-001,
          -6.43981025e-002, -1.14296973e-001, -2.87725776e-001,
          -2.24182069e-001, -1.28577337e-001, 7.91043937e-002,
          2.07137644e-001, 2.54390359e-001, -9.97769907e-002,
          -1.61249161e-001, -2.10031763e-001, -1.44740656e-001,
          -1.33844167e-001, 6.73566088e-002, 4.01620753e-003,
          1.00053445e-001, 1.61118120e-001, -6.70452863e-002,
          -1.33681372e-001, -1.37712210e-001, -1.53185174e-001,
          -2.54574805e-001, -1.30307272e-001, -5.57090454e-002,
          1.91897735e-001, 1.11921087e-001, -1.35818526e-001,
          9.20000523e-002, 1.16813116e-001, 4.30288278e-002,
          -1.14769980e-001, -8.77670348e-002, -2.57737674e-002,
          -1.28620472e-002, -3.47250104e-002, 1.59014128e-002,
          -1.93457916e-001, -1.97399393e-001, -1.76726580e-001,
          -1.28436595e-001, -1.04228565e-002, -9.42355990e-002,
          -5.27207367e-003, -6.49892241e-002, -8.39243531e-002,
          -8.59913453e-002, -4.08047773e-002, 4.08216901e-002,
          -1.27295777e-001, -2.04795804e-002, -4.10268277e-001,
          2.23669950e-002, -4.21465095e-003, -5.92693128e-003,
          -9.61080343e-002, -1.06733680e-001, -2.66222000e-001,
          -2.14913398e-001, -1.25150681e-001, -1.05162792e-001,
          -2.69652963e-001, -2.15747505e-001, -1.03996538e-001,
          1.09271452e-001, 8.32630694e-002, -6.68478459e-002,
          -2.90254712e-001, -1.42600924e-001, -2.22062632e-001,
          -9.72862914e-002, -8.65089148e-002, 2.86619496e-002,
          -1.07863910e-001, -6.68768724e-003, 9.20173898e-002,
          8.64082761e-003, 9.84082893e-002, -3.57739031e-001,
          -2.05074713e-001, 6.68718740e-002, 4.39338870e-002,
          -1.66816607e-001, -1.37623668e-001, -2.78347470e-002,
          -1.93078056e-001, -7.79685527e-002, -3.48873943e-001,
          -3.36458087e-001, -3.62875938e-001, -2.03293264e-001,
          7.01893270e-002, 2.13444099e-001, 3.72846633e-001,
          8.36681277e-002, -4.24255840e-002, 1.89764220e-002,
          4.33092527e-002, 2.96693295e-001, 1.20508038e-001,
          7.88598415e-003, 9.85567868e-002, 1.26749739e-001,
          -4.68171798e-002, -2.56679386e-001, -5.98554388e-002,
          -2.60643423e-001, -2.69146711e-001, -1.90252259e-001,
          -1.71387479e-001, -1.95672642e-002, -7.46575966e-002,
          -1.18392423e-001, -2.00791247e-002, -6.52432367e-002,
          -3.01311109e-002, -2.36311212e-001, -1.29319742e-001,
          -1.25196651e-001, -1.86406046e-001, -2.59977400e-001,
          -1.27118796e-001, -2.74793297e-001, -2.31820017e-001,
          -1.13830961e-001, -1.49014011e-001, -5.44324592e-002,
          -1.21702999e-002, 1.19454384e-001, 1.12333708e-001,
          -5.97242499e-003, -9.22187939e-002, 1.07375406e-001,
          -3.31408307e-002, 2.34410949e-002, -6.99511357e-003,
          -2.07506105e-001, 2.59251036e-002, -3.26229110e-002,
          -8.70652869e-002, -1.80901825e-001, -1.97418015e-002,
          -6.26334846e-002, -2.13842973e-001, 5.76432887e-003,
          1.49776801e-001, -5.14403656e-002, -2.55048901e-001,
          -2.11063921e-002, 2.15072613e-002, -1.03712134e-001,
          -1.45321071e-001, 2.12260440e-001, 1.53138950e-001,
          4.46710847e-002, 7.04855174e-002, -1.00282855e-001,
          -3.20214704e-002, 1.35914594e-001, -1.95117846e-001,
          -2.32010022e-001, -2.39570229e-003, 1.69156775e-001,
          -1.02062069e-001, 2.89440490e-002, -9.02491063e-002,
          -9.37832054e-003, 4.83895838e-002, 5.80551885e-002,
          -2.92271352e-003, 6.57744631e-002, 2.12401077e-002,
          -1.23773620e-001, -3.64605896e-002, -1.43920835e-002,
          7.78038353e-002, 8.75626132e-002, -1.07867792e-002,
          -2.36850291e-001, -3.15230101e-001, -3.17663550e-001,
          -7.59275481e-002, -4.24958691e-002, 6.84808418e-002,
          4.92696986e-002, 1.91419140e-001, -1.18597619e-001,
          -2.46269610e-002, -5.89039288e-002, 7.98339322e-002,
          6.54374734e-002, -3.58560239e-003, -5.16505204e-002,
          -5.47660328e-002, 8.81295279e-002, -9.59860831e-002,
          -1.61966488e-001, -1.11266322e-001, 1.52241483e-001,
          -2.97078520e-001, -2.58228123e-001, -6.60358816e-002,
          1.33458465e-001, 5.18887341e-002, 8.27594548e-002,
          8.56421068e-002, -2.44333446e-001, -4.37711120e-001,
          -2.51780506e-002, 1.88202128e-001, 5.26165590e-002,
          2.17577130e-001, 5.14251553e-002, 9.50669855e-005,
          -4.84612063e-002, 2.25100014e-002, -2.31993392e-001,
          -1.06478587e-001, -5.01827672e-002, -1.88202053e-001,
          -4.95898247e-001, -1.48683907e-002, -6.73406199e-002,
          -2.33897388e-001, -2.44179487e-001, -1.11111060e-001,
          -7.85688087e-002, 3.10910374e-001, 1.74465254e-002,
          -8.20559338e-002, 1.29528254e-001, -3.58319208e-002,
          7.27899978e-003, -1.96222872e-001, -1.76496923e-001,
          -3.75384450e-001, -9.32954997e-002, -1.54954240e-001,
          -2.61632413e-001, -1.57441989e-001, -2.91244611e-002,
          1.15781076e-001, 1.45238683e-001, -4.33691114e-001,
          -1.89819202e-001, 7.26977512e-002, 2.26695072e-002,
          -4.02924754e-002, 2.63029058e-002, 1.17511824e-001,
          1.95245653e-001, 1.06464587e-001, -3.04394126e-001,
          -2.72516519e-001, -2.46850811e-002, -1.72329143e-001,
          -4.15403426e-001, -3.72380853e-001, -1.86357230e-001,
          -1.66843347e-002, -3.31761897e-001, -4.14889783e-001,
          -1.27527192e-001, 1.80962965e-001, -6.42488617e-003,
          -2.94226617e-001, -1.62591606e-001, -6.69757947e-002,
          -1.33362934e-001, -1.75460204e-001, -1.59358367e-001,
          -5.32500386e-001, -2.25741178e-001, -1.82847083e-001,
          -3.49947333e-001, -1.81753278e-001, 1.64016247e-001,
          1.46193638e-001, 9.12544653e-002, -3.82068843e-001,
          -2.42144257e-001, -4.81543392e-002, -5.24241142e-002,
          -1.03383355e-001, -8.21676552e-002, 1.44687459e-001,
          1.21781021e-001, 2.53555685e-001, 9.55309812e-003,
          -4.10900444e-001, -3.57233554e-001, -4.79815811e-001,
          -4.70774353e-001, -3.03433865e-001, -3.05071503e-001,
          -4.99152482e-001, -3.43330711e-001, -2.59526491e-001,
          -2.41167173e-001, -2.55896389e-001, -4.62749869e-001,
          -5.17997980e-001, -8.78467634e-002, 1.01569537e-002,
          -7.58791268e-002, 1.68977659e-002, -9.90000460e-003,
          -2.87435293e-001, -2.12641180e-001, -3.15665096e-001,
          -1.92870900e-001, -1.83476672e-001, -1.38793677e-001,
          -1.52268812e-001, -3.60139459e-002, 8.95680264e-002,
          2.27036849e-002, 8.64334181e-002, -1.16685092e-001,
          1.11591876e-001, 1.96268111e-001, 1.77116305e-001,
          -2.65677273e-002, 2.10358240e-002, 9.11475047e-002 ]
   decision_functions:
      -
         sv_count: 1
         rho: -1.1533428006225508e+001
         alpha: [ 1. ]
         index: [ 0 ]
